{"learner":{"attributes":{"scikit_learn":"{\"_estimator_type\": \"classifier\"}"},"feature_names":[],"feature_types":[],"gradient_booster":{"model":{"gbtree_model_param":{"num_parallel_tree":"1","num_trees":"100"},"iteration_indptr":[0,1,2,3,4,5,6,7,8,9,10,11,12,13,14,15,16,17,18,19,20,21,22,23,24,25,26,27,28,29,30,31,32,33,34,35,36,37,38,39,40,41,42,43,44,45,46,47,48,49,50,51,52,53,54,55,56,57,58,59,60,61,62,63,64,65,66,67,68,69,70,71,72,73,74,75,76,77,78,79,80,81,82,83,84,85,86,87,88,89,90,91,92,93,94,95,96,97,98,99,100],"tree_info":[0,0,0,0,0,0,0,0,0,0,0,0,0,0,0,0,0,0,0,0,0,0,0,0,0,0,0,0,0,0,0,0,0,0,0,0,0,0,0,0,0,0,0,0,0,0,0,0,0,0,0,0,0,0,0,0,0,0,0,0,0,0,0,0,0,0,0,0,0,0,0,0,0,0,0,0,0,0,0,0,0,0,0,0,0,0,0,0,0,0,0,0,0,0,0,0,0,0,0,0],"trees":[{"base_weights":[2.540505E-1,4.2291972E-1,-1.2846534E0,6.303432E-1,-1.2212992E0,-9.191736E-1,-2.562255E0,4.4843704E-2,-5.8333643E-2,-4.303564E-2,-1.24083534E-1,-8.875774E-2,6.315235E-2,-1.0806216E-1,-1.5389949E-1],"categories":[],"categories_nodes":[],"categories_segments":[],"categories_sizes":[],"default_left":[0,0,0,0,0,0,0,0,0,0,0,0,0,0,0],"id":0,"left_children":[1,3,5,7,9,11,13,-1,-1,-1,-1,-1,-1,-1,-1],"loss_changes":[2.7532055E4,3.2563531E4,4.8905273E3,4.06088E4,4.858869E3,1.5224822E4,4.7528418E2,0E0,0E0,0E0,0E0,0E0,0E0,0E0,0E0],"parents":[2147483647,0,0,1,1,2,2,3,3,4,4,5,5,6,6],"right_children":[2,4,6,8,10,12,14,-1,-1,-1,-1,-1,-1,-1,-1],"split_conditions":[1E0,1E0,1E0,1E0,1E0,7.966634E-3,1E0,4.4843704E-2,-5.8333643E-2,-4.303564E-2,-1.24083534E-1,-8.875774E-2,6.315235E-2,-1.0806216E-1,-1.5389949E-1],"split_indices":[20,18,4,21,4,4,0,0,0,0,0,0,0,0,0],"split_type":[0,0,0,0,0,0,0,0,0,0,0,0,0,0,0],"sum_hessian":[1.05954734E5,9.547707E4,1.0477665E4,8.478215E4,1.0694925E4,8.148396E3,2.3292688E3,7.383199E4,1.0950155E4,8.317119E3,2.3778057E3,5.8528057E3,2.2955903E3,1.3132988E3,1.01597E3],"tree_param":{"num_deleted":"0","num_feature":"22","num_nodes":"15","size_leaf_vector":"1"}},{"base_weights":[2.4406318E-1,4.6074682E-1,-9.3336487E-1,-8.55779E-2,6.2817745E-2,-6.56698E-1,-2.6676626E0,5.968036E-3,-8.3201125E-2,-5.8790177E-2,6.2581114E-2,6.1175387E-2,-1.3676222E-1],"categories":[],"categories_nodes":[],"categories_segments":[],"categories_sizes":[],"default_left":[0,0,0,0,0,0,0,0,0,0,0,0,0],"id":1,"left_children":[1,3,5,7,-1,9,11,-1,-1,-1,-1,-1,-1],"loss_changes":[2.6832816E4,3.860915E4,7.841876E3,1.703622E4,0E0,1.3968477E4,5.946836E2,0E0,0E0,0E0,0E0,0E0,0E0],"parents":[2147483647,0,0,1,1,2,2,3,3,5,5,6,6],"right_children":[2,4,6,8,-1,10,12,-1,-1,-1,-1,-1,-1],"split_conditions":[1E0,1.761403E-2,1E0,1E0,6.2817745E-2,1.8700685E-2,1.4101293E0,5.968036E-3,-8.3201125E-2,-5.8790177E-2,6.2581114E-2,6.1175387E-2,-1.3676222E-1],"split_indices":[6,6,19,19,0,19,1,0,0,0,0,0,0],"split_type":[0,0,0,0,0,0,0,0,0,0,0,0,0],"sum_hessian":[1.0517069E5,8.882476E4,1.6345929E4,5.266315E4,3.616161E4,1.4098258E4,2.2476707E3,4.661215E4,6.051001E3,1.1083644E4,3.0146143E3,3.8078995E1,2.2095918E3],"tree_param":{"num_deleted":"0","num_feature":"22","num_nodes":"13","size_leaf_vector":"1"}},{"base_weights":[2.3433992E-1,4.4605073E-1,-8.850041E-1,-8.245241E-2,6.243475E-2,-6.668759E-1,-2.6873083E0,5.7070283E-3,-7.763677E-2,-5.4781564E-2,6.285089E-2,-1.469142E-1,-8.858772E-2],"categories":[],"categories_nodes":[],"categories_segments":[],"categories_sizes":[],"default_left":[0,0,0,0,0,0,0,0,0,0,0,0,0],"id":2,"left_children":[1,3,5,7,-1,9,11,-1,-1,-1,-1,-1,-1],"loss_changes":[2.4742885E4,3.7245992E4,6.526994E3,1.5303343E4,0E0,1.2222359E4,4.0669824E2,0E0,0E0,0E0,0E0,0E0,0E0],"parents":[2147483647,0,0,1,1,2,2,3,3,5,5,6,6],"right_children":[2,4,6,8,-1,10,12,-1,-1,-1,-1,-1,-1],"split_conditions":[1E0,1.7120607E-2,1E0,1E0,6.243475E-2,1.4067286E-2,1.1063321E-2,5.7070283E-3,-7.763677E-2,-5.4781564E-2,6.285089E-2,-1.469142E-1,-8.858772E-2],"split_indices":[5,5,7,20,0,7,13,0,0,0,0,0,0],"split_type":[0,0,0,0,0,0,0,0,0,0,0,0,0],"sum_hessian":[1.0440772E5,8.7801664E4,1.6606055E4,5.2942465E4,3.48592E4,1.4814469E4,1.7915865E3,4.669919E4,6.243272E3,1.2114978E4,2.6994907E3,1.4043976E3,3.87189E2],"tree_param":{"num_deleted":"0","num_feature":"22","num_nodes":"13","size_leaf_vector":"1"}},{"base_weights":[2.2501135E-1,3.4405115E-1,-1.6962729E0,4.7551715E-1,-1.6148455E0,-1.3795975E0,-2.6187513E0,3.1418633E-2,-7.558825E-2,-1.06113434E-1,-4.7747962E-2,-9.734019E-2,6.1571885E-2,6.1392654E-2,-1.3409474E-1],"categories":[],"categories_nodes":[],"categories_segments":[],"categories_sizes":[],"default_left":[0,0,0,0,0,0,0,0,0,0,0,0,0,0,0],"id":3,"left_children":[1,3,5,7,9,11,13,-1,-1,-1,-1,-1,-1,-1,-1],"loss_changes":[2.3702055E4,2.513193E4,1.7626953E3,2.7780275E4,2.053082E3,6.6717744E3,3.7833594E2,0E0,0E0,0E0,0E0,0E0,0E0,0E0,0E0],"parents":[2147483647,0,0,1,1,2,2,3,3,4,4,5,5,6,6],"right_children":[2,4,6,8,10,12,14,-1,-1,-1,-1,-1,-1,-1,-1],"split_conditions":[1E0,1E0,1E0,1E0,7.966634E-3,1.7120607E-2,0E0,3.1418633E-2,-7.558825E-2,-1.06113434E-1,-4.7747962E-2,-9.734019E-2,6.1571885E-2,6.1392654E-2,-1.3409474E-1],"split_indices":[14,16,5,13,4,5,0,0,0,0,0,0,0,0,0],"split_type":[0,0,0,0,0,0,0,0,0,0,0,0,0,0,0],"sum_hessian":[1.0363042E5,9.758503E4,6.045397E3,9.144847E4,6.1365566E3,4.5023066E3,1.5430903E3,8.491756E4,6.530907E3,3.4677756E3,2.668781E3,3.6990095E3,8.032972E2,2.4623455E1,1.5184668E3],"tree_param":{"num_deleted":"0","num_feature":"22","num_nodes":"15","size_leaf_vector":"1"}},{"base_weights":[2.1597633E-1,4.242029E-1,-8.4542406E-1,-9.3009435E-2,6.141905E-2,-5.972786E-1,-2.3076737E0,5.3099464E-3,-7.7896364E-2,-5.2372873E-2,6.1494917E-2,-1.2790886E-1,-7.0525326E-2],"categories":[],"categories_nodes":[],"categories_segments":[],"categories_sizes":[],"default_left":[0,0,0,0,0,0,0,0,0,0,0,0,0],"id":4,"left_children":[1,3,5,7,-1,9,11,-1,-1,-1,-1,-1,-1],"loss_changes":[2.273668E4,3.577123E4,6.1207324E3,1.527445E4,0E0,1.1867301E4,5.464492E2,0E0,0E0,0E0,0E0,0E0,0E0],"parents":[2147483647,0,0,1,1,2,2,3,3,5,5,6,6],"right_children":[2,4,6,8,-1,10,12,-1,-1,-1,-1,-1,-1],"split_conditions":[1E0,1.761403E-2,1E0,1E0,6.141905E-2,1.8700685E-2,1.1063321E-2,5.3099464E-3,-7.7896364E-2,-5.2372873E-2,6.1494917E-2,-1.2790886E-1,-7.0525326E-2],"split_indices":[6,6,19,18,0,19,13,0,0,0,0,0,0],"split_type":[0,0,0,0,0,0,0,0,0,0,0,0,0],"sum_hessian":[1.02872805E5,8.600154E4,1.6871266E4,5.2339766E4,3.366177E4,1.4424773E4,2.4464922E3,4.607512E4,6.2646455E3,1.1573683E4,2.8510906E3,1.9110464E3,5.354458E2],"tree_param":{"num_deleted":"0","num_feature":"22","num_nodes":"13","size_leaf_vector":"1"}},{"base_weights":[2.0748025E-1,3.41794E-1,-1.4051734E0,5.004314E-1,-1.38719E0,-1.0810708E0,-2.4635015E0,3.463031E-2,-6.831787E-2,-5.690651E-2,-1.2994315E-1,-8.8631175E-2,6.1442595E-2,-1.3436371E-1,-8.206269E-2],"categories":[],"categories_nodes":[],"categories_segments":[],"categories_sizes":[],"default_left":[0,0,0,0,0,0,0,0,0,0,0,0,0,0,0],"id":5,"left_children":[1,3,5,7,9,11,13,-1,-1,-1,-1,-1,-1,-1,-1],"loss_changes":[2.2110523E4,2.5846176E4,2.6893486E3,3.0965096E4,2.386956E3,9.602877E3,3.339961E2,0E0,0E0,0E0,0E0,0E0,0E0,0E0,0E0],"parents":[2147483647,0,0,1,1,2,2,3,3,4,4,5,5,6,6],"right_children":[2,4,6,8,10,12,14,-1,-1,-1,-1,-1,-1,-1,-1],"split_conditions":[1E0,1E0,1E0,1E0,1E0,7.966634E-3,1.3462736E-3,3.463031E-2,-6.831787E-2,-5.690651E-2,-1.2994315E-1,-8.8631175E-2,6.1442595E-2,-1.3436371E-1,-8.206269E-2],"split_indices":[11,7,4,10,21,4,16,0,0,0,0,0,0,0,0],"split_type":[0,0,0,0,0,0,0,0,0,0,0,0,0,0,0],"sum_hessian":[1.02076016E5,9.422874E4,7.84728E3,8.631032E4,7.918418E3,6.009079E3,1.8382006E3,7.825506E4,8.0552603E3,6.5699097E3,1.3485082E3,4.624741E3,1.3843384E3,1.4431755E3,3.9502505E2],"tree_param":{"num_deleted":"0","num_feature":"22","num_nodes":"15","size_leaf_vector":"1"}},{"base_weights":[1.9925131E-1,3.3561411E-1,-1.3588773E0,2.6421323E-2,1.2263535E0,-1.049412E0,-2.3033085E0,1.0335977E-2,-6.4301245E-2,6.114319E-2,6.275346E-2,-8.387215E-2,6.071042E-2,-1.04164235E-1,-1.5994295E-1],"categories":[],"categories_nodes":[],"categories_segments":[],"categories_sizes":[],"default_left":[0,0,0,0,0,0,0,0,0,0,0,0,0,0,0],"id":6,"left_children":[1,3,5,7,9,11,13,-1,-1,-1,-1,-1,-1,-1,-1],"loss_changes":[2.1529504E4,2.5660953E4,2.3808604E3,1.6367171E4,8.671875E-1,8.736089E3,3.897246E2,0E0,0E0,0E0,0E0,0E0,0E0,0E0,0E0],"parents":[2147483647,0,0,1,1,2,2,3,3,4,4,5,5,6,6],"right_children":[2,4,6,8,10,12,14,-1,-1,-1,-1,-1,-1,-1,-1],"split_conditions":[1E0,1.5032229E-2,1E0,1E0,1E0,1.7120607E-2,1E0,1.0335977E-2,-6.4301245E-2,6.114319E-2,6.275346E-2,-8.387215E-2,6.071042E-2,-1.04164235E-1,-1.5994295E-1],"split_indices":[8,8,5,9,6,5,19,0,0,0,0,0,0,0,0],"split_type":[0,0,0,0,0,0,0,0,0,0,0,0,0,0,0],"sum_hessian":[1.0132609E5,9.317268E4,8.1534126E3,6.916516E4,2.4007527E4,6.1427173E3,2.0106956E3,6.0811918E4,8.353237E3,2.1444951E4,2.562577E3,4.808798E3,1.3339196E3,1.6167979E3,3.9389764E2],"tree_param":{"num_deleted":"0","num_feature":"22","num_nodes":"15","size_leaf_vector":"1"}},{"base_weights":[1.9116923E-1,3.5071653E-1,-1.091701E0,-1.9626E-2,1.2141988E0,-7.7993804E-1,-2.107897E0,1.0497949E-2,-5.3817898E-2,6.1355364E-2,6.011794E-2,-7.021028E-2,6.091527E-2,-1.17926896E-1,-6.991004E-2],"categories":[],"categories_nodes":[],"categories_segments":[],"categories_sizes":[],"default_left":[0,0,0,0,0,0,0,0,0,0,0,0,0,0,0],"id":7,"left_children":[1,3,5,7,9,11,13,-1,-1,-1,-1,-1,-1,-1,-1],"loss_changes":[2.0598459E4,2.862248E4,3.5250254E3,1.5197476E4,2.6328125E0,1.0629801E4,4.614629E2,0E0,0E0,0E0,0E0,0E0,0E0,0E0,0E0],"parents":[2147483647,0,0,1,1,2,2,3,3,4,4,5,5,6,6],"right_children":[2,4,6,8,10,12,14,-1,-1,-1,-1,-1,-1,-1,-1],"split_conditions":[1E0,1.8700685E-2,1E0,1E0,1.761403E-2,1.7120607E-2,7.108901E-3,1.0497949E-2,-5.3817898E-2,6.1355364E-2,6.011794E-2,-7.021028E-2,6.091527E-2,-1.17926896E-1,-6.991004E-2],"split_indices":[19,19,5,20,6,5,11,0,0,0,0,0,0,0,0],"split_type":[0,0,0,0,0,0,0,0,0,0,0,0,0,0,0],"sum_hessian":[1.00635266E5,8.950454E4,1.1130725E4,6.263971E4,2.686483E4,8.518933E3,2.6117915E3,5.146028E4,1.117943E4,1.2803357E4,1.4061472E4,6.4912964E3,2.0276366E3,1.9284161E3,6.8337537E2],"tree_param":{"num_deleted":"0","num_feature":"22","num_nodes":"15","size_leaf_vector":"1"}},{"base_weights":[1.8357103E-1,3.4292117E-1,-1.0638723E0,-4.2012982E-2,1.2132487E0,-7.4444276E-1,-2.1739962E0,4.7417325E-3,-8.932378E-2,6.0467284E-2,6.213984E-2,-6.8641E-2,6.16811E-2,-9.941807E-2,-1.7329101E-1],"categories":[],"categories_nodes":[],"categories_segments":[],"categories_sizes":[],"default_left":[0,0,0,0,0,0,0,0,0,0,0,0,0,0,0],"id":8,"left_children":[1,3,5,7,9,11,13,-1,-1,-1,-1,-1,-1,-1,-1],"loss_changes":[1.9857238E4,2.967575E4,4.0108867E3,1.4661926E4,1.6289062E0,1.0925557E4,5.9931055E2,0E0,0E0,0E0,0E0,0E0,0E0,0E0,0E0],"parents":[2147483647,0,0,1,1,2,2,3,3,4,4,5,5,6,6],"right_children":[2,4,6,8,10,12,14,-1,-1,-1,-1,-1,-1,-1,-1],"split_conditions":[1E0,1.1974498E-2,1E0,1E0,1E0,7.966634E-3,1E0,4.7417325E-3,-8.932378E-2,6.0467284E-2,6.213984E-2,-6.8641E-2,6.16811E-2,-9.941807E-2,-1.7329101E-1],"split_indices":[21,21,4,12,6,4,17,0,0,0,0,0,0,0,0],"split_type":[0,0,0,0,0,0,0,0,0,0,0,0,0,0,0],"sum_hessian":[9.989258E4,8.85782E4,1.1314377E4,6.1415777E4,2.7162422E4,8.78751E3,2.5268677E3,5.6949234E4,4.4665435E3,2.403019E4,3.132233E3,6.669194E3,2.1183152E3,2.2116003E3,3.1526712E2],"tree_param":{"num_deleted":"0","num_feature":"22","num_nodes":"15","size_leaf_vector":"1"}},{"base_weights":[1.7623422E-1,3.3316898E-1,-1.0390676E0,-4.3626525E-2,1.2088331E0,-8.643162E-1,-2.582576E0,9.227055E-3,-5.2659478E-2,6.025938E-2,6.186998E-2,-5.942699E-2,6.2330484E-2,-1.3794814E-1,-9.995286E-2],"categories":[],"categories_nodes":[],"categories_segments":[],"categories_sizes":[],"default_left":[0,0,0,0,0,0,0,0,0,0,0,0,0,0,0],"id":9,"left_children":[1,3,5,7,9,11,13,-1,-1,-1,-1,-1,-1,-1,-1],"loss_changes":[1.8919717E4,2.8987197E4,3.0578457E3,1.4149341E4,1.2617188E0,6.977452E3,1.1318848E2,0E0,0E0,0E0,0E0,0E0,0E0,0E0,0E0],"parents":[2147483647,0,0,1,1,2,2,3,3,4,4,5,5,6,6],"right_children":[2,4,6,8,10,12,14,-1,-1,-1,-1,-1,-1,-1,-1],"split_conditions":[1E0,1.6680568E-2,1E0,1E0,1E0,1.632005E-2,4.7831093E-3,9.227055E-3,-5.2659478E-2,6.025938E-2,6.186998E-2,-5.942699E-2,6.2330484E-2,-1.3794814E-1,-9.995286E-2],"split_indices":[18,18,15,5,6,15,9,0,0,0,0,0,0,0,0],"split_type":[0,0,0,0,0,0,0,0,0,0,0,0,0,0,0],"sum_hessian":[9.919709E4,8.785314E4,1.1343955E4,6.1423676E4,2.6429465E4,1.0191647E4,1.1523076E3,5.0101285E4,1.1322391E4,2.3476746E4,2.952718E3,8.835078E3,1.3565697E3,8.819755E2,2.7033212E2],"tree_param":{"num_deleted":"0","num_feature":"22","num_nodes":"15","size_leaf_vector":"1"}},{"base_weights":[1.6918054E-1,3.6900532E-1,-7.745123E-1,-1.1006943E-1,1.1925406E0,-3.8629544E-1,-1.3669027E0,3.7073214E-3,-6.835874E-2,5.9487224E-2,6.1586875E-2,-9.0359E-3,-8.101981E-2,-5.920741E-2,-1.2799542E-1],"categories":[],"categories_nodes":[],"categories_segments":[],"categories_sizes":[],"default_left":[0,0,0,0,0,0,0,0,0,0,0,0,0,0,0],"id":10,"left_children":[1,3,5,7,9,11,13,-1,-1,-1,-1,-1,-1,-1,-1],"loss_changes":[1.8574094E4,3.207005E4,3.9578555E3,1.1901188E4,1.8125E0,2.6380596E3,1.4825645E3,0E0,0E0,0E0,0E0,0E0,0E0,0E0,0E0],"parents":[2147483647,0,0,1,1,2,2,3,3,4,4,5,5,6,6],"right_children":[2,4,6,8,10,12,14,-1,-1,-1,-1,-1,-1,-1,-1],"split_conditions":[1E0,1.761403E-2,1E0,1E0,1E0,1E0,1E0,3.7073214E-3,-6.835874E-2,5.9487224E-2,6.1586875E-2,-9.0359E-3,-8.101981E-2,-5.920741E-2,-1.2799542E-1],"split_indices":[6,6,0,21,20,19,12,0,0,0,0,0,0,0,0],"split_type":[0,0,0,0,0,0,0,0,0,0,0,0,0,0,0],"sum_hessian":[9.849553E4,8.128437E4,1.7211168E4,5.1390098E4,2.9894268E4,1.0398362E4,6.8128057E3,4.4822727E4,6.567368E3,2.7932992E4,1.9612749E3,8.914521E3,1.4838412E3,5.9095273E3,9.032781E2],"tree_param":{"num_deleted":"0","num_feature":"22","num_nodes":"15","size_leaf_vector":"1"}},{"base_weights":[1.62489E-1,2.7692866E-1,-1.448191E0,3.2280777E-2,1.2073948E0,-1.1482577E0,-2.3447325E0,8.800357E-3,-7.144939E-2,6.009149E-2,6.2333535E-2,-8.3396785E-2,6.013295E-2,-1.2756968E-1,-9.215945E-2],"categories":[],"categories_nodes":[],"categories_segments":[],"categories_sizes":[],"default_left":[0,0,0,0,0,0,0,0,0,0,0,0,0,0,0],"id":11,"left_children":[1,3,5,7,9,11,13,-1,-1,-1,-1,-1,-1,-1,-1],"loss_changes":[1.8020492E4,2.0778129E4,1.7412598E3,1.5179783E4,2.6542969E0,5.941545E3,1.6370898E2,0E0,0E0,0E0,0E0,0E0,0E0,0E0,0E0],"parents":[2147483647,0,0,1,1,2,2,3,3,4,4,5,5,6,6],"right_children":[2,4,6,8,10,12,14,-1,-1,-1,-1,-1,-1,-1,-1],"split_conditions":[1E0,2.8580613E-2,1E0,1E0,1E0,7.966634E-3,1.6680568E-2,8.800357E-3,-7.144939E-2,6.009149E-2,6.2333535E-2,-8.3396785E-2,6.013295E-2,-1.2756968E-1,-9.215945E-2],"split_indices":[17,17,4,14,6,4,18,0,0,0,0,0,0,0,0],"split_type":[0,0,0,0,0,0,0,0,0,0,0,0,0,0,0],"sum_hessian":[9.776124E4,9.1276805E4,6.4844375E3,7.227464E4,1.9002168E4,4.860622E3,1.6238152E3,6.580329E4,6.4713506E3,1.6671572E4,2.3305957E3,3.9809175E3,8.7970465E2,1.1470756E3,4.7673962E2],"tree_param":{"num_deleted":"0","num_feature":"22","num_nodes":"15","size_leaf_vector":"1"}},{"base_weights":[1.5585722E-1,2.8426644E-1,-1.232406E0,-8.61778E-3,1.203496E0,-9.653831E-1,-2.0486755E0,8.068121E-3,-6.108425E-2,5.9889108E-2,6.2209815E-2,-7.4855484E-2,5.9622E-2,-1.0981863E-1,-7.2433695E-2],"categories":[],"categories_nodes":[],"categories_segments":[],"categories_sizes":[],"default_left":[0,0,0,0,0,0,0,0,0,0,0,0,0,0,0],"id":12,"left_children":[1,3,5,7,9,11,13,-1,-1,-1,-1,-1,-1,-1,-1],"loss_changes":[1.7313635E4,2.3934012E4,1.7903096E3,1.3901822E4,3.5078125E0,7.1131084E3,1.763584E2,0E0,0E0,0E0,0E0,0E0,0E0,0E0,0E0],"parents":[2147483647,0,0,1,1,2,2,3,3,4,4,5,5,6,6],"right_children":[2,4,6,8,10,12,14,-1,-1,-1,-1,-1,-1,-1,-1],"split_conditions":[1E0,7.108901E-3,1E0,1E0,1E0,7.966634E-3,2.7552755E-3,8.068121E-3,-6.108425E-2,5.9889108E-2,6.2209815E-2,-7.4855484E-2,5.9622E-2,-1.0981863E-1,-7.2433695E-2],"split_indices":[11,11,4,7,6,4,14,0,0,0,0,0,0,0,0],"split_type":[0,0,0,0,0,0,0,0,0,0,0,0,0,0,0],"sum_hessian":[9.711961E4,8.8897695E4,8.221914E3,6.741801E4,2.1479686E4,6.1969233E3,2.0249908E3,5.9132918E4,8.285091E3,1.8862137E4,2.6175488E3,4.9720312E3,1.2248921E3,1.6228484E3,4.0214246E2],"tree_param":{"num_deleted":"0","num_feature":"22","num_nodes":"15","size_leaf_vector":"1"}},{"base_weights":[1.4957882E-1,2.7939868E-1,-1.2021672E0,-2.5395967E-2,1.192495E0,-9.0799475E-1,-2.1202505E0,7.473364E-3,-6.0634416E-2,5.9995826E-2,-9.6812405E-2,-7.414931E-2,5.8896538E-2,-9.764715E-2,-1.3760655E-1],"categories":[],"categories_nodes":[],"categories_segments":[],"categories_sizes":[],"default_left":[0,0,0,0,0,0,0,0,0,0,0,0,0,0,0],"id":13,"left_children":[1,3,5,7,9,11,13,-1,-1,-1,-1,-1,-1,-1,-1],"loss_changes":[1.692648E4,2.4492008E4,2.280704E3,1.3698607E4,5.1373047E2,7.6809893E3,2.1137207E2,0E0,0E0,0E0,0E0,0E0,0E0,0E0,0E0],"parents":[2147483647,0,0,1,1,2,2,3,3,4,4,5,5,6,6],"right_children":[2,4,6,8,10,12,14,-1,-1,-1,-1,-1,-1,-1,-1],"split_conditions":[1E0,1.7833585E-2,1E0,1E0,2.241976E0,7.966634E-3,1E0,7.473364E-3,-6.0634416E-2,5.9995826E-2,-9.6812405E-2,-7.414931E-2,5.8896538E-2,-9.764715E-2,-1.3760655E-1],"split_indices":[10,10,4,8,12,4,21,0,0,0,0,0,0,0,0],"split_type":[0,0,0,0,0,0,0,0,0,0,0,0,0,0,0],"sum_hessian":[9.645334E4,8.800249E4,8.450848E3,6.5979336E4,2.2023156E4,6.401627E3,2.0492214E3,5.751017E4,8.469167E3,2.1971654E4,5.1501774E1,5.0185405E3,1.3830864E3,1.6234575E3,4.257638E2],"tree_param":{"num_deleted":"0","num_feature":"22","num_nodes":"15","size_leaf_vector":"1"}},{"base_weights":[1.435457E-1,2.5487065E-1,-1.3708054E0,5.1020933E-3,1.1952096E0,-1.1133353E0,-2.1151195E0,7.3260255E-3,-6.568381E-2,5.9471227E-2,6.189517E-2,-7.996198E-2,5.9355397E-2,-1.18411325E-1,-7.515117E-2],"categories":[],"categories_nodes":[],"categories_segments":[],"categories_sizes":[],"default_left":[0,0,0,0,0,0,0,0,0,0,0,0,0,0,0],"id":14,"left_children":[1,3,5,7,9,11,13,-1,-1,-1,-1,-1,-1,-1,-1],"loss_changes":[1.6154891E4,2.0964975E4,1.2552031E3,1.315409E4,3.1523438E0,5.454162E3,2.5755762E2,0E0,0E0,0E0,0E0,0E0,0E0,0E0,0E0],"parents":[2147483647,0,0,1,1,2,2,3,3,4,4,5,5,6,6],"right_children":[2,4,6,8,10,12,14,-1,-1,-1,-1,-1,-1,-1,-1],"split_conditions":[1E0,1.632005E-2,1E0,1E0,1E0,7.966634E-3,1.1974498E-2,7.3260255E-3,-6.568381E-2,5.9471227E-2,6.189517E-2,-7.996198E-2,5.9355397E-2,-1.18411325E-1,-7.515117E-2],"split_indices":[15,15,4,12,6,4,21,0,0,0,0,0,0,0,0],"split_type":[0,0,0,0,0,0,0,0,0,0,0,0,0,0,0],"sum_hessian":[9.582328E4,8.926216E4,6.5611245E3,7.0529445E4,1.8732705E4,4.8766934E3,1.6844309E3,6.3699555E4,6.829895E3,1.6522678E4,2.2100283E3,4.0265103E3,8.5018304E2,1.1896366E3,4.947944E2],"tree_param":{"num_deleted":"0","num_feature":"22","num_nodes":"15","size_leaf_vector":"1"}},{"base_weights":[1.3766153E-1,2.887506E-1,-9.5736766E-1,-5.4372985E-2,1.1766769E0,-7.742153E-1,-2.1934712E0,8.139017E-3,-4.8951108E-2,5.9592392E-2,5.8108043E-2,-5.4700237E-2,6.109264E-2,-9.4624095E-2,-1.4899318E-1],"categories":[],"categories_nodes":[],"categories_segments":[],"categories_sizes":[],"default_left":[0,0,0,0,0,0,0,0,0,0,0,0,0,0,0],"id":15,"left_children":[1,3,5,7,9,11,13,-1,-1,-1,-1,-1,-1,-1,-1],"loss_changes":[1.5756771E4,2.5497635E4,2.6125742E3,1.2120726E4,3.75E0,6.4220576E3,3.4694775E2,0E0,0E0,0E0,0E0,0E0,0E0,0E0,0E0],"parents":[2147483647,0,0,1,1,2,2,3,3,4,4,5,5,6,6],"right_children":[2,4,6,8,10,12,14,-1,-1,-1,-1,-1,-1,-1,-1],"split_conditions":[1E0,1.8700685E-2,1E0,1E0,1.761403E-2,4.7831093E-3,1E0,8.139017E-3,-4.8951108E-2,5.9592392E-2,5.8108043E-2,-5.4700237E-2,6.109264E-2,-9.4624095E-2,-1.4899318E-1],"split_indices":[19,19,9,4,6,9,4,0,0,0,0,0,0,0,0],"split_type":[0,0,0,0,0,0,0,0,0,0,0,0,0,0,0],"sum_hessian":[9.5234945E4,8.368856E4,1.1546378E4,6.03632E4,2.3325365E4,1.0057756E4,1.4886222E3,4.888371E4,1.1479488E4,1.1365686E4,1.195968E4,8.669301E3,1.3884543E3,1.0790322E3,4.0958994E2],"tree_param":{"num_deleted":"0","num_feature":"22","num_nodes":"15","size_leaf_vector":"1"}},{"base_weights":[1.3218597E-1,3.2415026E-1,-7.179524E-1,-1.19434595E-1,1.1651771E0,-5.281368E-1,-1.691679E0,2.8856995E-3,-6.284291E-2,5.812499E-2,6.0073357E-2,-4.6255596E-2,6.0560804E-2,-9.331492E-2,-5.244549E-2],"categories":[],"categories_nodes":[],"categories_segments":[],"categories_sizes":[],"default_left":[0,0,0,0,0,0,0,0,0,0,0,0,0,0,0],"id":16,"left_children":[1,3,5,7,9,11,13,-1,-1,-1,-1,-1,-1,-1,-1],"loss_changes":[1.543658E4,2.8787648E4,3.2195898E3,1.0179497E4,1.1914062E0,1.0070469E4,3.1703613E2,0E0,0E0,0E0,0E0,0E0,0E0,0E0,0E0],"parents":[2147483647,0,0,1,1,2,2,3,3,4,4,5,5,6,6],"right_children":[2,4,6,8,10,12,14,-1,-1,-1,-1,-1,-1,-1,-1],"split_conditions":[1E0,1.761403E-2,1E0,1E0,9.963228E-1,1.6680568E-2,2.7552755E-3,2.8856995E-3,-6.284291E-2,5.812499E-2,6.0073357E-2,-4.6255596E-2,6.0560804E-2,-9.331492E-2,-5.244549E-2],"split_indices":[6,6,18,20,20,18,14,0,0,0,0,0,0,0,0],"split_type":[0,0,0,0,0,0,0,0,0,0,0,0,0,0,0],"sum_hessian":[9.4586664E4,7.716349E4,1.7423176E4,5.0518992E4,2.6644496E4,1.458212E4,2.8410557E3,4.3711996E4,6.806996E3,2.4844576E4,1.7999213E3,1.1872834E4,2.7092861E3,2.2326216E3,6.0843396E2],"tree_param":{"num_deleted":"0","num_feature":"22","num_nodes":"15","size_leaf_vector":"1"}},{"base_weights":[1.270944E-1,3.1722948E-1,-7.0062107E-1,-1.4095384E-1,1.1711204E0,-4.9916056E-1,-1.7249156E0,1.4849215E-4,-6.801501E-2,5.931173E-2,5.764571E-2,-4.5576617E-2,5.9879404E-2,-9.39221E-2,-5.5420395E-2],"categories":[],"categories_nodes":[],"categories_segments":[],"categories_sizes":[],"default_left":[0,0,0,0,0,0,0,0,0,0,0,0,0,0,0],"id":17,"left_children":[1,3,5,7,9,11,13,-1,-1,-1,-1,-1,-1,-1,-1],"loss_changes":[1.4773322E4,2.9865742E4,3.6176426E3,8.718477E3,5.96875E0,1.0254861E4,2.7066602E2,0E0,0E0,0E0,0E0,0E0,0E0,0E0,0E0],"parents":[2147483647,0,0,1,1,2,2,3,3,4,4,5,5,6,6],"right_children":[2,4,6,8,10,12,14,-1,-1,-1,-1,-1,-1,-1,-1],"split_conditions":[1E0,1.7120607E-2,1E0,1E0,1.761403E-2,1.6680568E-2,1.3462736E-3,1.4849215E-4,-6.801501E-2,5.931173E-2,5.764571E-2,-4.5576617E-2,5.9879404E-2,-9.39221E-2,-5.5420395E-2],"split_indices":[5,5,18,9,6,18,16,0,0,0,0,0,0,0,0],"split_type":[0,0,0,0,0,0,0,0,0,0,0,0,0,0,0],"sum_hessian":[9.386931E4,7.633498E4,1.753434E4,4.9678938E4,2.6656037E4,1.4653705E4,2.880636E3,4.4435105E4,5.243832E3,1.4529721E4,1.2126316E4,1.1789009E4,2.8646963E3,2.3046675E3,5.759685E2],"tree_param":{"num_deleted":"0","num_feature":"22","num_nodes":"15","size_leaf_vector":"1"}},{"base_weights":[1.2217301E-1,2.3057939E-1,-1.2780408E0,-2.1604672E-3,1.1786407E0,-9.5718956E-1,-1.6955726E0,6.783388E-3,-6.44597E-2,5.942459E-2,-7.4093334E-2,-3.523349E-2,-8.5856356E-2,-9.416481E-2,-5.7550598E-2],"categories":[],"categories_nodes":[],"categories_segments":[],"categories_sizes":[],"default_left":[0,0,0,0,0,0,0,0,0,0,0,0,0,0,0],"id":18,"left_children":[1,3,5,7,9,11,13,-1,-1,-1,-1,-1,-1,-1,-1],"loss_changes":[1.4146594E4,1.9086205E4,8.9553906E2,1.2320048E4,4.4860352E2,7.25938E2,2.9518555E2,0E0,0E0,0E0,0E0,0E0,0E0,0E0,0E0],"parents":[2147483647,0,0,1,1,2,2,3,3,4,4,5,5,6,6],"right_children":[2,4,6,8,10,12,14,-1,-1,-1,-1,-1,-1,-1,-1],"split_conditions":[1E0,1.3462736E-3,1E0,1E0,1E0,1E0,1.7833585E-2,6.783388E-3,-6.44597E-2,5.942459E-2,-7.4093334E-2,-3.523349E-2,-8.5856356E-2,-9.416481E-2,-5.7550598E-2],"split_indices":[16,16,0,17,12,6,10,0,0,0,0,0,0,0,0],"split_type":[0,0,0,0,0,0,0,0,0,0,0,0,0,0,0],"sum_hessian":[9.319422E4,8.649825E4,6.6959717E3,6.944995E4,1.7048291E4,3.7882178E3,2.907754E3,6.27328E4,6.717153E3,1.6985951E4,6.2340847E1,2.8448345E3,9.4338324E2,2.160513E3,7.472408E2],"tree_param":{"num_deleted":"0","num_feature":"22","num_nodes":"15","size_leaf_vector":"1"}},{"base_weights":[1.1712077E-1,2.2862227E-1,-1.2340915E0,-1.549298E-2,1.1824664E0,-9.8940796E-1,-1.9898162E0,6.008042E-3,-6.2280804E-2,5.8800727E-2,6.1587255E-2,-7.368295E-2,4.600951E-2,-1.0974445E-1,-7.452959E-2],"categories":[],"categories_nodes":[],"categories_segments":[],"categories_sizes":[],"default_left":[0,0,0,0,0,0,0,0,0,0,0,0,0,0,0],"id":19,"left_children":[1,3,5,7,9,11,13,-1,-1,-1,-1,-1,-1,-1,-1],"loss_changes":[1.3958876E4,1.9928684E4,1.3040127E3,1.1371919E4,4.095703E0,4.936831E3,1.7347461E2,0E0,0E0,0E0,0E0,0E0,0E0,0E0,0E0],"parents":[2147483647,0,0,1,1,2,2,3,3,4,4,5,5,6,6],"right_children":[2,4,6,8,10,12,14,-1,-1,-1,-1,-1,-1,-1,-1],"split_conditions":[1E0,1.1063321E-2,1E0,1E0,1E0,7.966634E-3,1.1974498E-2,6.008042E-3,-6.2280804E-2,5.8800727E-2,6.1587255E-2,-7.368295E-2,4.600951E-2,-1.0974445E-1,-7.452959E-2],"split_indices":[13,13,4,14,6,4,21,0,0,0,0,0,0,0,0],"split_type":[0,0,0,0,0,0,0,0,0,0,0,0,0,0,0],"sum_hessian":[9.264727E4,8.558562E4,7.0616597E3,6.814611E4,1.7439502E4,5.336237E3,1.7254229E3,6.137841E4,6.7677017E3,1.5442531E4,1.9969707E3,4.2569536E3,1.0792836E3,1.2206174E3,5.0480542E2],"tree_param":{"num_deleted":"0","num_feature":"22","num_nodes":"15","size_leaf_vector":"1"}},{"base_weights":[1.1235141E-1,2.5892442E-1,-8.8846844E-1,-7.722729E-2,1.1628245E0,-6.512576E-1,-1.5971297E0,6.27419E-3,-4.4015978E-2,5.786702E-2,5.9788402E-2,-5.8153402E-2,6.0298957E-2,-7.374265E-2,-1.10573135E-1],"categories":[],"categories_nodes":[],"categories_segments":[],"categories_sizes":[],"default_left":[0,0,0,0,0,0,0,0,0,0,0,0,0,0,0],"id":20,"left_children":[1,3,5,7,9,11,13,-1,-1,-1,-1,-1,-1,-1,-1],"loss_changes":[1.3507569E4,2.4404232E4,1.9763086E3,9.531107E3,2.5507812E0,8.380091E3,2.1828125E2,0E0,0E0,0E0,0E0,0E0,0E0,0E0,0E0],"parents":[2147483647,0,0,1,1,2,2,3,3,4,4,5,5,6,6],"right_children":[2,4,6,8,10,12,14,-1,-1,-1,-1,-1,-1,-1,-1],"split_conditions":[1E0,1.6680568E-2,1E0,1E0,9.85526E-1,7.966634E-3,1E0,6.27419E-3,-4.4015978E-2,5.786702E-2,5.9788402E-2,-5.8153402E-2,6.0298957E-2,-7.374265E-2,-1.10573135E-1],"split_indices":[18,18,4,4,4,4,7,0,0,0,0,0,0,0,0],"split_type":[0,0,0,0,0,0,0,0,0,0,0,0,0,0,0],"sum_hessian":[9.207784E4,8.031606E4,1.1761782E4,5.854475E4,2.1771312E4,8.813538E3,2.9482446E3,4.6746227E4,1.1798521E4,1.8695256E4,3.0760562E3,6.909748E3,1.9037896E3,2.4616743E3,4.8657034E2],"tree_param":{"num_deleted":"0","num_feature":"22","num_nodes":"15","size_leaf_vector":"1"}},{"base_weights":[1.0794126E-1,2.2914661E-1,-1.0741998E0,-3.9751295E-2,1.1702706E0,-9.073765E-1,-1.7465554E0,5.9036333E-3,-5.3379487E-2,5.8175117E-2,6.079487E-2,-6.05977E-2,5.9355654E-2,6.380006E-2,-8.9682415E-2],"categories":[],"categories_nodes":[],"categories_segments":[],"categories_sizes":[],"default_left":[0,0,0,0,0,0,0,0,0,0,0,0,0,0,0],"id":21,"left_children":[1,3,5,7,9,11,13,-1,-1,-1,-1,-1,-1,-1,-1],"loss_changes":[1.3103761E4,2.0991605E4,9.5236035E2,1.0465829E4,4.2773438E0,4.3497505E3,2.427915E2,0E0,0E0,0E0,0E0,0E0,0E0,0E0,0E0],"parents":[2147483647,0,0,1,1,2,2,3,3,4,4,5,5,6,6],"right_children":[2,4,6,8,10,12,14,-1,-1,-1,-1,-1,-1,-1,-1],"split_conditions":[1E0,7.108901E-3,1E0,1E0,1E0,1.1974498E-2,0E0,5.9036333E-3,-5.3379487E-2,5.8175117E-2,6.079487E-2,-6.05977E-2,5.9355654E-2,6.380006E-2,-8.9682415E-2],"split_indices":[11,11,21,7,6,21,0,0,0,0,0,0,0,0,0],"split_type":[0,0,0,0,0,0,0,0,0,0,0,0,0,0,0],"sum_hessian":[9.1451734E4,8.294787E4,8.503869E3,6.451547E4,1.84324E4,6.815238E3,1.6886311E3,5.592856E4,8.58691E3,1.6074424E4,2.357976E3,5.950366E3,8.648717E2,2.550561E1,1.6631255E3],"tree_param":{"num_deleted":"0","num_feature":"22","num_nodes":"15","size_leaf_vector":"1"}},{"base_weights":[1.03608124E-1,2.2681022E-1,-1.0558292E0,-5.222447E-2,1.1599742E0,-8.694867E-1,-1.892137E0,5.4979054E-3,-5.2741606E-2,5.8408964E-2,-7.563072E-2,-5.7985306E-2,5.96971E-2,6.737652E-2,-9.6896164E-2],"categories":[],"categories_nodes":[],"categories_segments":[],"categories_sizes":[],"default_left":[0,0,0,0,0,0,0,0,0,0,0,0,0,0,0],"id":22,"left_children":[1,3,5,7,9,11,13,-1,-1,-1,-1,-1,-1,-1,-1],"loss_changes":[1.2979677E4,2.138725E4,1.3585176E3,1.0281782E4,4.163711E2,4.276819E3,2.383877E2,0E0,0E0,0E0,0E0,0E0,0E0,0E0,0E0],"parents":[2147483647,0,0,1,1,2,2,3,3,4,4,5,5,6,6],"right_children":[2,4,6,8,10,12,14,-1,-1,-1,-1,-1,-1,-1,-1],"split_conditions":[1E0,1.7833585E-2,1E0,1E0,2.241976E0,1.1974498E-2,1.8E1,5.4979054E-3,-5.2741606E-2,5.8408964E-2,-7.563072E-2,-5.7985306E-2,5.96971E-2,6.737652E-2,-9.6896164E-2],"split_indices":[10,10,21,8,12,21,1,0,0,0,0,0,0,0,0],"split_type":[0,0,0,0,0,0,0,0,0,0,0,0,0,0,0],"sum_hessian":[9.086272E4,8.213576E4,8.726961E3,6.3229742E4,1.8906012E4,7.1384434E3,1.5885177E3,5.4426555E4,8.80319E3,1.8848709E4,5.7303806E1,6.258613E3,8.798305E2,2.174144E1,1.5667762E3],"tree_param":{"num_deleted":"0","num_feature":"22","num_nodes":"15","size_leaf_vector":"1"}},{"base_weights":[9.945362E-2,2.2302447E-1,-1.0226997E0,-5.9461482E-2,1.1614918E0,-6.3352233E-1,-1.5933096E0,4.9367556E-3,-5.198443E-2,5.8520626E-2,-6.9616035E-2,-2.2312295E-2,-7.931816E-2,-8.798195E-2,-4.8470974E-2],"categories":[],"categories_nodes":[],"categories_segments":[],"categories_sizes":[],"default_left":[0,0,0,0,0,0,0,0,0,0,0,0,0,0,0],"id":23,"left_children":[1,3,5,7,9,11,13,-1,-1,-1,-1,-1,-1,-1,-1],"loss_changes":[1.2521916E4,2.156486E4,1.9882178E3,9.695817E3,4.3039844E2,9.498982E2,3.7514258E2,0E0,0E0,0E0,0E0,0E0,0E0,0E0,0E0],"parents":[2147483647,0,0,1,1,2,2,3,3,4,4,5,5,6,6],"right_children":[2,4,6,8,10,12,14,-1,-1,-1,-1,-1,-1,-1,-1],"split_conditions":[1E0,4.7831093E-3,1E0,1E0,2.241976E0,1E0,1.3462736E-3,4.9367556E-3,-5.198443E-2,5.8520626E-2,-6.9616035E-2,-2.2312295E-2,-7.931816E-2,-8.798195E-2,-4.8470974E-2],"split_indices":[9,9,0,21,12,19,16,0,0,0,0,0,0,0,0],"split_type":[0,0,0,0,0,0,0,0,0,0,0,0,0,0,0],"sum_hessian":[9.030043E4,8.13437E4,8.95672E3,6.2524332E4,1.8819375E4,5.326177E3,3.6305425E3,5.3836656E4,8.687675E3,1.8754404E4,6.497032E1,4.4525225E3,8.736542E2,2.864931E3,7.6561163E2],"tree_param":{"num_deleted":"0","num_feature":"22","num_nodes":"15","size_leaf_vector":"1"}},{"base_weights":[9.542467E-2,2.3876522E-1,-8.533906E-1,-1.1330607E-1,1.1620482E0,-6.357997E-1,-1.4733701E0,9.099106E-3,-3.214089E-2,5.784368E-2,5.990503E-2,-5.2168693E-2,5.883487E-2,-6.7522064E-2,-1.1291792E-1],"categories":[],"categories_nodes":[],"categories_segments":[],"categories_sizes":[],"default_left":[0,0,0,0,0,0,0,0,0,0,0,0,0,0,0],"id":24,"left_children":[1,3,5,7,9,11,13,-1,-1,-1,-1,-1,-1,-1,-1],"loss_changes":[1.220934E4,2.5351477E4,1.5885068E3,8.828237E3,2.6328125E0,6.445209E3,2.9224512E2,0E0,0E0,0E0,0E0,0E0,0E0,0E0,0E0],"parents":[2147483647,0,0,1,1,2,2,3,3,4,4,5,5,6,6],"right_children":[2,4,6,8,10,12,14,-1,-1,-1,-1,-1,-1,-1,-1],"split_conditions":[1E0,3.0408811E-3,1E0,1E0,1E0,1.7120607E-2,1E0,9.099106E-3,-3.214089E-2,5.784368E-2,5.990503E-2,-5.2168693E-2,5.883487E-2,-6.7522064E-2,-1.1291792E-1],"split_indices":[20,20,5,0,6,5,15,0,0,0,0,0,0,0,0],"split_type":[0,0,0,0,0,0,0,0,0,0,0,0,0,0,0],"sum_hessian":[8.976962E4,7.798841E4,1.178121E4,5.6459746E4,2.1528662E4,8.72209E3,3.0591196E3,3.6246906E4,2.0212842E4,1.8855422E4,2.6732395E3,7.1211826E3,1.6009078E3,2.647277E3,4.1184256E2],"tree_param":{"num_deleted":"0","num_feature":"22","num_nodes":"15","size_leaf_vector":"1"}},{"base_weights":[9.17338E-2,2.3400296E-1,-8.3746916E-1,-7.597273E-2,1.1438984E0,-6.203961E-1,-1.4679842E0,5.840235E-3,-4.0723775E-2,5.795419E-2,5.643643E-2,-5.692935E-2,5.9244543E-2,-8.346125E-2,-4.4131365E-2],"categories":[],"categories_nodes":[],"categories_segments":[],"categories_sizes":[],"default_left":[0,0,0,0,0,0,0,0,0,0,0,0,0,0,0],"id":25,"left_children":[1,3,5,7,9,11,13,-1,-1,-1,-1,-1,-1,-1,-1],"loss_changes":[1.1786773E4,2.1808277E4,1.6194287E3,8.211045E3,3.21875E0,8.241523E3,3.5559912E2,0E0,0E0,0E0,0E0,0E0,0E0,0E0,0E0],"parents":[2147483647,0,0,1,1,2,2,3,3,4,4,5,5,6,6],"right_children":[2,4,6,8,10,12,14,-1,-1,-1,-1,-1,-1,-1,-1],"split_conditions":[1E0,1.8700685E-2,1E0,1E0,1.761403E-2,7.966634E-3,1.7833585E-2,5.840235E-3,-4.0723775E-2,5.795419E-2,5.643643E-2,-5.692935E-2,5.9244543E-2,-8.346125E-2,-4.4131365E-2],"split_indices":[19,19,4,18,6,4,10,0,0,0,0,0,0,0,0],"split_type":[0,0,0,0,0,0,0,0,0,0,0,0,0,0,0],"sum_hessian":[8.915825E4,7.732054E4,1.1837708E4,5.7673668E4,1.9646873E4,8.807466E3,3.0302415E3,4.5735734E4,1.1937933E4,9.780753E3,9.866121E3,6.843478E3,1.963988E3,2.2536162E3,7.766255E2],"tree_param":{"num_deleted":"0","num_feature":"22","num_nodes":"15","size_leaf_vector":"1"}},{"base_weights":[8.8187255E-2,2.6716217E-1,-6.337754E-1,-1.4497675E-1,1.1412731E0,-5.1156324E-1,-1.6206594E0,-1.2915022E-3,-6.595621E-2,5.685481E-2,5.951796E-2,-3.663559E-2,6.0061533E-2,6.344673E-2,-8.288967E-2],"categories":[],"categories_nodes":[],"categories_segments":[],"categories_sizes":[],"default_left":[0,0,0,0,0,0,0,0,0,0,0,0,0,0,0],"id":26,"left_children":[1,3,5,7,9,11,13,-1,-1,-1,-1,-1,-1,-1,-1],"loss_changes":[1.1441601E4,2.5562945E4,2.120748E3,6.74605E3,3.3046875E0,5.9301978E3,2.1003857E2,0E0,0E0,0E0,0E0,0E0,0E0,0E0,0E0],"parents":[2147483647,0,0,1,1,2,2,3,3,4,4,5,5,6,6],"right_children":[2,4,6,8,10,12,14,-1,-1,-1,-1,-1,-1,-1,-1],"split_conditions":[1E0,1.7120607E-2,1E0,1E0,1E0,2.8580613E-2,1.4101293E0,-1.2915022E-3,-6.595621E-2,5.685481E-2,5.951796E-2,-3.663559E-2,6.0061533E-2,6.344673E-2,-8.288967E-2],"split_indices":[5,5,17,12,18,17,1,0,0,0,0,0,0,0,0],"split_type":[0,0,0,0,0,0,0,0,0,0,0,0,0,0,0],"sum_hessian":[8.854592E4,7.095642E4,1.7589502E4,4.8221203E4,2.2735219E4,1.5652652E4,1.9368501E3,4.377968E4,4.441525E3,2.0974547E4,1.7606727E3,1.3863261E4,1.7893914E3,2.4153608E1,1.9126965E3],"tree_param":{"num_deleted":"0","num_feature":"22","num_nodes":"15","size_leaf_vector":"1"}},{"base_weights":[8.482259E-2,1.8902522E-1,-1.1395576E0,-3.419979E-2,1.1570542E0,-1.0117601E0,-1.828096E0,4.647234E-3,-5.5918235E-2,5.7480186E-2,6.0379714E-2,-6.2038988E-2,5.8769852E-2,6.581069E-2,-9.407379E-2],"categories":[],"categories_nodes":[],"categories_segments":[],"categories_sizes":[],"default_left":[0,0,0,0,0,0,0,0,0,0,0,0,0,0,0],"id":27,"left_children":[1,3,5,7,9,11,13,-1,-1,-1,-1,-1,-1,-1,-1],"loss_changes":[1.1218215E4,1.750995E4,6.049844E2,9.076969E3,4.328125E0,2.9161904E3,1.8347485E2,0E0,0E0,0E0,0E0,0E0,0E0,0E0,0E0],"parents":[2147483647,0,0,1,1,2,2,3,3,4,4,5,5,6,6],"right_children":[2,4,6,8,10,12,14,-1,-1,-1,-1,-1,-1,-1,-1],"split_conditions":[1E0,1.632005E-2,1E0,1E0,1E0,4.7831093E-3,1.8E1,4.647234E-3,-5.5918235E-2,5.7480186E-2,6.0379714E-2,-6.2038988E-2,5.8769852E-2,6.581069E-2,-9.407379E-2],"split_indices":[15,15,9,16,6,9,1,0,0,0,0,0,0,0,0],"split_type":[0,0,0,0,0,0,0,0,0,0,0,0,0,0,0],"sum_hessian":[8.7925625E4,8.103027E4,6.8953525E3,6.584707E4,1.5183202E4,5.817967E3,1.0773856E3,5.8936285E4,6.9107856E3,1.3253219E4,1.9299834E3,5.266897E3,5.510699E2,1.759008E1,1.0597955E3],"tree_param":{"num_deleted":"0","num_feature":"22","num_nodes":"15","size_leaf_vector":"1"}},{"base_weights":[8.137494E-2,2.5803718E-1,-6.187642E-1,-1.3330342E-1,1.1299795E0,-4.9275488E-1,-1.5341902E0,9.489562E-4,-5.0084095E-2,5.633769E-2,5.833594E-2,-3.558363E-2,6.0215365E-2,6.676378E-2,-7.887793E-2],"categories":[],"categories_nodes":[],"categories_segments":[],"categories_sizes":[],"default_left":[0,0,0,0,0,0,0,0,0,0,0,0,0,0,0],"id":28,"left_children":[1,3,5,7,9,11,13,-1,-1,-1,-1,-1,-1,-1,-1],"loss_changes":[1.0814615E4,2.3823717E4,2.0313774E3,6.372646E3,1.2480469E0,5.754425E3,2.673081E2,0E0,0E0,0E0,0E0,0E0,0E0,0E0,0E0],"parents":[2147483647,0,0,1,1,2,2,3,3,4,4,5,5,6,6],"right_children":[2,4,6,8,10,12,14,-1,-1,-1,-1,-1,-1,-1,-1],"split_conditions":[1E0,1.761403E-2,1E0,1E0,1E0,1.1063321E-2,0E0,9.489562E-4,-5.0084095E-2,5.633769E-2,5.833594E-2,-3.558363E-2,6.0215365E-2,6.676378E-2,-7.887793E-2],"split_indices":[6,6,13,21,18,13,12,0,0,0,0,0,0,0,0],"split_type":[0,0,0,0,0,0,0,0,0,0,0,0,0,0,0],"sum_hessian":[8.743224E4,6.981647E4,1.7615771E4,4.818926E4,2.1627205E4,1.5485688E4,2.130083E3,4.100026E4,7.1890015E3,1.991069E4,1.7165166E3,1.3716825E4,1.768863E3,3.1270771E1,2.0988123E3],"tree_param":{"num_deleted":"0","num_feature":"22","num_nodes":"15","size_leaf_vector":"1"}},{"base_weights":[7.830114E-2,2.1624398E-1,-7.913807E-1,-1.09008014E-1,1.1448642E0,-6.716075E-1,-1.6872394E0,8.119053E-3,-2.8756885E-2,5.6939054E-2,5.9255134E-2,-4.3665405E-2,6.0679752E-2,-8.8824436E-2,-6.759524E-2],"categories":[],"categories_nodes":[],"categories_segments":[],"categories_sizes":[],"default_left":[0,0,0,0,0,0,0,0,0,0,0,0,0,0,0],"id":29,"left_children":[1,3,5,7,9,11,13,-1,-1,-1,-1,-1,-1,-1,-1],"loss_changes":[1.0413939E4,2.2629502E4,1.2740005E3,7.0195845E3,3.4101562E0,3.9875771E3,3.952173E1,0E0,0E0,0E0,0E0,0E0,0E0,0E0,0E0],"parents":[2147483647,0,0,1,1,2,2,3,3,4,4,5,5,6,6],"right_children":[2,4,6,8,10,12,14,-1,-1,-1,-1,-1,-1,-1,-1],"split_conditions":[1E0,3.0408811E-3,1E0,1E0,1E0,1.1063321E-2,7.108901E-3,8.119053E-3,-2.8756885E-2,5.6939054E-2,5.9255134E-2,-4.3665405E-2,6.0679752E-2,-8.8824436E-2,-6.759524E-2],"split_indices":[20,20,13,0,6,13,11,0,0,0,0,0,0,0,0],"split_type":[0,0,0,0,0,0,0,0,0,0,0,0,0,0,0],"sum_hessian":[8.680472E4,7.492188E4,1.1882832E4,5.548795E4,1.9433936E4,1.0483036E4,1.3997961E3,3.5070137E4,2.0417812E4,1.6907227E4,2.5267085E3,9.470329E3,1.0127077E3,1.1021588E3,2.9763736E2],"tree_param":{"num_deleted":"0","num_feature":"22","num_nodes":"15","size_leaf_vector":"1"}},{"base_weights":[7.5279064E-2,1.9012573E-1,-9.1880596E-1,-6.640749E-2,1.1391814E0,-7.1994597E-1,-1.4689732E0,3.9831214E-3,-4.7469873E-2,5.7409536E-2,-5.627055E-2,-5.480076E-2,5.6123972E-2,-8.010754E-2,-5.6470115E-2],"categories":[],"categories_nodes":[],"categories_segments":[],"categories_sizes":[],"default_left":[0,0,0,0,0,0,0,0,0,0,0,0,0,0,0],"id":30,"left_children":[1,3,5,7,9,11,13,-1,-1,-1,-1,-1,-1,-1,-1],"loss_changes":[9.844735E3,1.8819793E4,9.759966E2,7.8487E3,3.3688086E2,4.5475605E3,1.05370605E2,0E0,0E0,0E0,0E0,0E0,0E0,0E0,0E0],"parents":[2147483647,0,0,1,1,2,2,3,3,4,4,5,5,6,6],"right_children":[2,4,6,8,10,12,14,-1,-1,-1,-1,-1,-1,-1,-1],"split_conditions":[1E0,1.7833585E-2,1E0,1E0,1.9943924E0,7.966634E-3,3.0408811E-3,3.9831214E-3,-4.7469873E-2,5.7409536E-2,-5.627055E-2,-5.480076E-2,5.6123972E-2,-8.010754E-2,-5.6470115E-2],"split_indices":[10,10,4,11,13,4,20,0,0,0,0,0,0,0,0],"split_type":[0,0,0,0,0,0,0,0,0,0,0,0,0,0,0],"sum_hessian":[8.622821E4,7.7298695E4,8.929512E3,6.0851297E4,1.64474E4,6.5605024E3,2.3690095E3,5.221454E4,8.636758E3,1.6382717E4,6.468364E1,5.448732E3,1.1117703E3,1.6989668E3,6.7004266E2],"tree_param":{"num_deleted":"0","num_feature":"22","num_nodes":"15","size_leaf_vector":"1"}},{"base_weights":[7.232181E-2,1.8716577E-1,-9.2829007E-1,-7.207534E-2,1.1520569E0,-7.299585E-1,-1.4654105E0,3.7841082E-3,-4.5119055E-2,5.721724E-2,6.020241E-2,-5.7525706E-2,5.9328914E-2,-7.903678E-2,-5.0652653E-2],"categories":[],"categories_nodes":[],"categories_segments":[],"categories_sizes":[],"default_left":[0,0,0,0,0,0,0,0,0,0,0,0,0,0,0],"id":31,"left_children":[1,3,5,7,9,11,13,-1,-1,-1,-1,-1,-1,-1,-1],"loss_changes":[9.845625E3,1.9224887E4,9.386304E2,7.4323823E3,5.1484375E0,5.1955576E3,1.224458E2,0E0,0E0,0E0,0E0,0E0,0E0,0E0,0E0],"parents":[2147483647,0,0,1,1,2,2,3,3,4,4,5,5,6,6],"right_children":[2,4,6,8,10,12,14,-1,-1,-1,-1,-1,-1,-1,-1],"split_conditions":[1E0,1.4067286E-2,1E0,1E0,1E0,7.966634E-3,1.3462736E-3,3.7841082E-3,-4.5119055E-2,5.721724E-2,6.020241E-2,-5.7525706E-2,5.9328914E-2,-7.903678E-2,-5.0652653E-2],"split_indices":[7,7,4,9,6,4,16,0,0,0,0,0,0,0,0],"split_type":[0,0,0,0,0,0,0,0,0,0,0,0,0,0,0],"sum_hessian":[8.5675516E4,7.685535E4,8.820162E3,6.0580008E4,1.6275345E4,6.4433247E3,2.3768374E3,5.1428867E4,9.151143E3,1.4193053E4,2.0822917E3,5.2841875E3,1.1591372E3,1.8919934E3,4.8484415E2],"tree_param":{"num_deleted":"0","num_feature":"22","num_nodes":"15","size_leaf_vector":"1"}},{"base_weights":[6.947543E-2,1.8563776E-1,-8.986139E-1,-7.507983E-2,1.1460454E0,6.958832E-2,-9.3980736E-1,1.6985765E-3,-5.713721E-2,5.70265E-2,6.030661E-2,-3.9646115E-2,-7.718264E-2],"categories":[],"categories_nodes":[],"categories_segments":[],"categories_sizes":[],"default_left":[0,0,0,0,0,0,0,0,0,0,0,0,0],"id":32,"left_children":[1,3,5,7,9,-1,11,-1,-1,-1,-1,-1,-1],"loss_changes":[9.57699E3,1.9039635E4,8.621411E2,6.963077E3,4.0058594E0,0E0,7.93791E2,0E0,0E0,0E0,0E0,0E0,0E0],"parents":[2147483647,0,0,1,1,2,2,3,3,4,4,6,6],"right_children":[2,4,6,8,10,-1,12,-1,-1,-1,-1,-1,-1],"split_conditions":[1E0,1.5032229E-2,0E0,1E0,1E0,6.958832E-2,1E0,1.6985765E-3,-5.713721E-2,5.70265E-2,6.030661E-2,-3.9646115E-2,-7.718264E-2],"split_indices":[8,8,0,13,21,0,21,0,0,0,0,0,0],"split_type":[0,0,0,0,0,0,0,0,0,0,0,0,0],"sum_hessian":[8.5159984E4,7.6037016E4,9.122975E3,5.980338E4,1.6233635E4,1.6060214E2,8.962372E3,5.426202E4,5.5413604E3,1.4887125E4,1.3465093E3,7.210689E3,1.751683E3],"tree_param":{"num_deleted":"0","num_feature":"22","num_nodes":"13","size_leaf_vector":"1"}},{"base_weights":[6.669276E-2,1.6660713E-1,-1.0261614E0,-4.1944966E-2,1.1468846E0,6.911427E-2,-1.0902689E0,3.9693597E-3,-5.155865E-2,5.6952186E-2,5.9793968E-2,-4.7857568E-2,-8.0674104E-2],"categories":[],"categories_nodes":[],"categories_segments":[],"categories_sizes":[],"default_left":[0,0,0,0,0,0,0,0,0,0,0,0,0],"id":33,"left_children":[1,3,5,7,9,-1,11,-1,-1,-1,-1,-1,-1],"loss_changes":[9.246973E3,1.5862698E4,1.096792E3,7.6793613E3,3.8671875E0,0E0,4.797627E2,0E0,0E0,0E0,0E0,0E0,0E0],"parents":[2147483647,0,0,1,1,2,2,3,3,4,4,6,6],"right_children":[2,4,6,8,10,-1,12,-1,-1,-1,-1,-1,-1],"split_conditions":[1E0,2.8580613E-2,1.4101293E0,1E0,1E0,6.911427E-2,1E0,3.9693597E-3,-5.155865E-2,5.6952186E-2,5.9793968E-2,-4.7857568E-2,-8.0674104E-2],"split_indices":[17,17,1,14,6,0,21,0,0,0,0,0,0],"split_type":[0,0,0,0,0,0,0,0,0,0,0,0,0],"sum_hessian":[8.468299E4,7.759015E4,7.0928438E3,6.397958E4,1.3610571E4,1.8336737E2,6.9094766E3,5.6990426E4,6.9891484E3,1.1753785E4,1.8567867E3,5.510346E3,1.3991302E3],"tree_param":{"num_deleted":"0","num_feature":"22","num_nodes":"13","size_leaf_vector":"1"}},{"base_weights":[6.398765E-2,1.6490217E-1,-1.0062726E0,-5.6432616E-2,1.1524435E0,-8.760819E-1,-1.54823E0,3.2552213E-3,-5.0956108E-2,5.7234883E-2,6.014058E-2,-5.445059E-2,5.8105227E-2,-8.2128875E-2,-6.0175776E-2],"categories":[],"categories_nodes":[],"categories_segments":[],"categories_sizes":[],"default_left":[0,0,0,0,0,0,0,0,0,0,0,0,0,0,0],"id":34,"left_children":[1,3,5,7,9,11,13,-1,-1,-1,-1,-1,-1,-1,-1],"loss_changes":[9.096296E3,1.6822586E4,5.1067773E2,7.356394E3,4.1210938E0,2.541686E3,4.36958E1,0E0,0E0,0E0,0E0,0E0,0E0,0E0,0E0],"parents":[2147483647,0,0,1,1,2,2,3,3,4,4,5,5,6,6],"right_children":[2,4,6,8,10,12,14,-1,-1,-1,-1,-1,-1,-1,-1],"split_conditions":[1E0,2.518431E-2,1E0,1E0,1E0,1.6680568E-2,1.7833585E-2,3.2552213E-3,-5.0956108E-2,5.7234883E-2,6.014058E-2,-5.445059E-2,5.8105227E-2,-8.2128875E-2,-6.0175776E-2],"split_indices":[12,12,18,15,5,18,10,0,0,0,0,0,0,0,0],"split_type":[0,0,0,0,0,0,0,0,0,0,0,0,0,0,0],"sum_hessian":[8.421868E4,7.696273E4,7.2559473E3,6.287229E4,1.4090441E4,5.8526274E3,1.40332E3,5.5825406E4,7.04688E3,1.2232917E4,1.8575247E3,5.2994575E3,5.531702E2,1.0988131E3,3.0450674E2],"tree_param":{"num_deleted":"0","num_feature":"22","num_nodes":"15","size_leaf_vector":"1"}},{"base_weights":[6.14183E-2,1.9362731E-1,-7.3401606E-1,-8.608143E-2,1.1215665E0,-5.499815E-1,-1.2377574E0,4.474572E-3,-3.569352E-2,5.5754747E-2,5.8126796E-2,-4.8039753E-2,5.7805788E-2,-6.990071E-2,-3.7813783E-2],"categories":[],"categories_nodes":[],"categories_segments":[],"categories_sizes":[],"default_left":[0,0,0,0,0,0,0,0,0,0,0,0,0,0,0],"id":35,"left_children":[1,3,5,7,9,11,13,-1,-1,-1,-1,-1,-1,-1,-1],"loss_changes":[8.809255E3,1.8643295E4,1.1060991E3,6.083547E3,3.1132812E0,6.131004E3,2.4537305E2,0E0,0E0,0E0,0E0,0E0,0E0,0E0,0E0],"parents":[2147483647,0,0,1,1,2,2,3,3,4,4,5,5,6,6],"right_children":[2,4,6,8,10,12,14,-1,-1,-1,-1,-1,-1,-1,-1],"split_conditions":[1E0,1.8700685E-2,1E0,1E0,9.8879725E-1,7.966634E-3,1.7833585E-2,4.474572E-3,-3.569352E-2,5.5754747E-2,5.8126796E-2,-4.8039753E-2,5.7805788E-2,-6.990071E-2,-3.7813783E-2],"split_indices":[19,19,4,18,5,4,10,0,0,0,0,0,0,0,0],"split_type":[0,0,0,0,0,0,0,0,0,0,0,0,0,0,0],"sum_hessian":[8.37648E4,7.182717E4,1.1937626E4,5.5191656E4,1.6635516E4,8.744896E3,3.1927295E3,4.313032E4,1.206134E4,1.4390556E4,2.2449604E3,7.04819E3,1.6967068E3,2.3940042E3,7.987253E2],"tree_param":{"num_deleted":"0","num_feature":"22","num_nodes":"15","size_leaf_vector":"1"}},{"base_weights":[5.9107892E-2,1.9022734E-1,-7.221293E-1,-1.0815098E-1,1.1272116E0,-5.4700476E-1,-1.204993E0,3.4694194E-3,-3.6279965E-2,5.6084115E-2,5.816526E-2,-4.6298027E-2,5.8148153E-2,-6.53784E-2,-4.2404894E-2],"categories":[],"categories_nodes":[],"categories_segments":[],"categories_sizes":[],"default_left":[0,0,0,0,0,0,0,0,0,0,0,0,0,0,0],"id":36,"left_children":[1,3,5,7,9,11,13,-1,-1,-1,-1,-1,-1,-1,-1],"loss_changes":[8.522398E3,1.9917281E4,1.01042236E3,5.9234136E3,2.1308594E0,5.6881445E3,1.1536035E2,0E0,0E0,0E0,0E0,0E0,0E0,0E0,0E0],"parents":[2147483647,0,0,1,1,2,2,3,3,4,4,5,5,6,6],"right_children":[2,4,6,8,10,12,14,-1,-1,-1,-1,-1,-1,-1,-1],"split_conditions":[1E0,3.0408811E-3,1E0,1E0,1E0,7.966634E-3,7.108901E-3,3.4694194E-3,-3.6279965E-2,5.6084115E-2,5.816526E-2,-4.6298027E-2,5.8148153E-2,-6.53784E-2,-4.2404894E-2],"split_indices":[20,20,4,6,6,4,11,0,0,0,0,0,0,0,0],"split_type":[0,0,0,0,0,0,0,0,0,0,0,0,0,0,0],"sum_hessian":[8.3195445E4,7.123965E4,1.1955797E4,5.4033734E4,1.7205912E4,8.775311E3,3.1804866E3,4.1967426E4,1.206631E4,1.4948071E4,2.2578406E3,7.1837393E3,1.591571E3,2.4683865E3,7.1210016E2],"tree_param":{"num_deleted":"0","num_feature":"22","num_nodes":"15","size_leaf_vector":"1"}},{"base_weights":[5.6911238E-2,2.2274272E-1,-5.5802083E-1,-1.4266679E-1,1.1166041E0,-4.3690687E-1,-1.2652271E0,-6.812735E-5,-4.4111673E-2,5.559301E-2,5.839278E-2,-3.5163388E-2,5.9200015E-2,3.5289492E-2,-6.721966E-2],"categories":[],"categories_nodes":[],"categories_segments":[],"categories_sizes":[],"default_left":[0,0,0,0,0,0,0,0,0,0,0,0,0,0,0],"id":37,"left_children":[1,3,5,7,9,11,13,-1,-1,-1,-1,-1,-1,-1,-1],"loss_changes":[8.424134E3,2.125154E4,1.5023105E3,4.826461E3,3.2890625E0,6.469279E3,4.0118408E2,0E0,0E0,0E0,0E0,0E0,0E0,0E0,0E0],"parents":[2147483647,0,0,1,1,2,2,3,3,4,4,5,5,6,6],"right_children":[2,4,6,8,10,12,14,-1,-1,-1,-1,-1,-1,-1,-1],"split_conditions":[1E0,1.7120607E-2,1E0,1E0,1E0,4.7831093E-3,1.11095E3,-6.812735E-5,-4.4111673E-2,5.559301E-2,5.839278E-2,-3.5163388E-2,5.9200015E-2,3.5289492E-2,-6.721966E-2],"split_indices":[5,5,9,21,18,9,2,0,0,0,0,0,0,0,0],"split_type":[0,0,0,0,0,0,0,0,0,0,0,0,0,0,0],"sum_hessian":[8.2607484E4,6.5062445E4,1.7545043E4,4.6183516E4,1.8878928E4,1.4981052E4,2.563991E3,3.8775863E4,7.4076523E3,1.730028E4,1.5786501E3,1.2867177E4,2.113875E3,9.870061E1,2.4652905E3],"tree_param":{"num_deleted":"0","num_feature":"22","num_nodes":"15","size_leaf_vector":"1"}},{"base_weights":[5.4852325E-2,1.5102413E-1,-9.6336055E-1,-5.154727E-2,1.1351726E0,7.172275E-2,-1.0032706E0,3.278826E-3,-4.7809552E-2,5.7356566E-2,-5.036336E-2,-4.455633E-2,-7.9750955E-2],"categories":[],"categories_nodes":[],"categories_segments":[],"categories_sizes":[],"default_left":[0,0,0,0,0,0,0,0,0,0,0,0,0],"id":38,"left_children":[1,3,5,7,9,-1,11,-1,-1,-1,-1,-1,-1],"loss_changes":[8.0318403E3,1.4940658E4,6.788301E2,6.585295E3,3.2891406E2,0E0,4.6066455E2,0E0,0E0,0E0,0E0,0E0,0E0],"parents":[2147483647,0,0,1,1,2,2,3,3,4,4,6,6],"right_children":[2,4,6,8,10,-1,12,-1,-1,-1,-1,-1,-1],"split_conditions":[1E0,1.3462736E-3,0E0,1E0,1E0,7.172275E-2,1E0,3.278826E-3,-4.7809552E-2,5.7356566E-2,-5.036336E-2,-4.455633E-2,-7.9750955E-2],"split_indices":[16,16,12,17,13,0,8,0,0,0,0,0,0],"split_type":[0,0,0,0,0,0,0,0,0,0,0,0,0],"sum_hessian":[8.2019195E4,7.494169E4,7.077509E3,6.2150035E4,1.2791654E4,1.152997E2,6.962209E3,5.5026684E4,7.12335E3,1.2721112E4,7.054289E1,5.8550977E3,1.1071113E3],"tree_param":{"num_deleted":"0","num_feature":"22","num_nodes":"13","size_leaf_vector":"1"}},{"base_weights":[5.264019E-2,1.5034306E-1,-9.2279553E-1,-5.6612935E-2,1.1377507E0,-7.522258E-1,-1.4035261E0,5.6533064E-3,-3.2573983E-2,5.640706E-2,5.9587445E-2,-5.251893E-2,4.156905E-2,-7.7070124E-2,-5.2833516E-2],"categories":[],"categories_nodes":[],"categories_segments":[],"categories_sizes":[],"default_left":[0,0,0,0,0,0,0,0,0,0,0,0,0,0,0],"id":39,"left_children":[1,3,5,7,9,11,13,-1,-1,-1,-1,-1,-1,-1,-1],"loss_changes":[7.77631E3,1.5155981E4,6.080928E2,6.1891E3,5.326172E0,2.590856E3,9.1358154E1,0E0,0E0,0E0,0E0,0E0,0E0,0E0,0E0],"parents":[2147483647,0,0,1,1,2,2,3,3,4,4,5,5,6,6],"right_children":[2,4,6,8,10,12,14,-1,-1,-1,-1,-1,-1,-1,-1],"split_conditions":[1E0,1.1063321E-2,1E0,1E0,1E0,7.966634E-3,1.1974498E-2,5.6533064E-3,-3.2573983E-2,5.640706E-2,5.9587445E-2,-5.251893E-2,4.156905E-2,-7.7070124E-2,-5.2833516E-2],"split_indices":[13,13,4,5,5,4,21,0,0,0,0,0,0,0,0],"split_type":[0,0,0,0,0,0,0,0,0,0,0,0,0,0,0],"sum_hessian":[8.159331E4,7.416549E4,7.427815E3,6.1315086E4,1.285041E4,5.484429E3,1.9433859E3,4.7707785E4,1.3607301E4,1.0927612E4,1.9227975E3,4.6157397E3,8.6868933E2,1.388148E3,5.552379E2],"tree_param":{"num_deleted":"0","num_feature":"22","num_nodes":"15","size_leaf_vector":"1"}},{"base_weights":[5.05695E-2,2.1202414E-1,-5.31531E-1,-1.8848215E-1,1.1033758E0,-3.857724E-1,-1.1874546E0,-4.447806E-3,-5.431667E-2,5.5833884E-2,-5.3411968E-2,-3.44149E-2,5.7476338E-2,-5.52867E-2,-8.492212E-2],"categories":[],"categories_nodes":[],"categories_segments":[],"categories_sizes":[],"default_left":[0,0,0,0,0,0,0,0,0,0,0,0,0,0,0],"id":40,"left_children":[1,3,5,7,9,11,13,-1,-1,-1,-1,-1,-1,-1,-1],"loss_changes":[7.6243643E3,2.2672572E4,1.6836919E3,3.9157197E3,5.6996094E2,6.6956885E3,1.3184326E2,0E0,0E0,0E0,0E0,0E0,0E0,0E0,0E0],"parents":[2147483647,0,0,1,1,2,2,3,3,4,4,5,5,6,6],"right_children":[2,4,6,8,10,12,14,-1,-1,-1,-1,-1,-1,-1,-1],"split_conditions":[1E0,7.966634E-3,1E0,1E0,2.241976E0,1.6680568E-2,1E0,-4.447806E-3,-5.431667E-2,5.5833884E-2,-5.3411968E-2,-3.44149E-2,5.7476338E-2,-5.52867E-2,-8.492212E-2],"split_indices":[4,4,18,14,12,18,16,0,0,0,0,0,0,0,0],"split_type":[0,0,0,0,0,0,0,0,0,0,0,0,0,0,0],"sum_hessian":[8.112289E4,6.3508465E4,1.7614426E4,4.3819895E4,1.968857E4,1.4413142E4,3.2012837E3,3.9448195E4,4.371698E3,1.9569188E4,1.1938252E2,1.2041045E4,2.3720962E3,2.7626294E3,4.3865445E2],"tree_param":{"num_deleted":"0","num_feature":"22","num_nodes":"15","size_leaf_vector":"1"}},{"base_weights":[4.881274E-2,1.4426716E-1,-9.013915E-1,-5.958836E-2,1.1378937E0,7.537686E-2,-9.2840225E-1,2.6943765E-3,-4.527239E-2,5.6428827E-2,5.970021E-2,-3.8714908E-2,-6.5180026E-2],"categories":[],"categories_nodes":[],"categories_segments":[],"categories_sizes":[],"default_left":[0,0,0,0,0,0,0,0,0,0,0,0,0],"id":41,"left_children":[1,3,5,7,9,-1,11,-1,-1,-1,-1,-1,-1],"loss_changes":[7.301951E3,1.4818285E4,4.7958203E2,5.8266206E3,5.163086E0,0E0,4.1923535E2,0E0,0E0,0E0,0E0,0E0,0E0],"parents":[2147483647,0,0,1,1,2,2,3,3,4,4,6,6],"right_children":[2,4,6,8,10,-1,12,-1,-1,-1,-1,-1,-1],"split_conditions":[1E0,2.518431E-2,0E0,1E0,1E0,7.537686E-2,9.954902E-1,2.6943765E-3,-4.527239E-2,5.6428827E-2,5.970021E-2,-3.8714908E-2,-6.5180026E-2],"split_indices":[12,12,13,15,5,0,4,0,0,0,0,0,0],"split_type":[0,0,0,0,0,0,0,0,0,0,0,0,0],"sum_hessian":[8.050314E4,7.315507E4,7.3480713E3,6.0702164E4,1.2452905E4,8.087082E1,7.2672E3,5.3522777E4,7.1793877E3,1.0697679E4,1.7552272E3,5.153558E3,2.113642E3],"tree_param":{"num_deleted":"0","num_feature":"22","num_nodes":"13","size_leaf_vector":"1"}},{"base_weights":[4.6859708E-2,1.5282159E-1,-7.92536E-1,-7.759902E-2,1.1180769E0,-6.2921876E-1,-1.2238537E0,2.754635E-3,-4.0418312E-2,5.6395628E-2,-4.2427935E-2,-4.5530297E-2,5.4088242E-2,-6.6439904E-2,-4.7445543E-2],"categories":[],"categories_nodes":[],"categories_segments":[],"categories_sizes":[],"default_left":[0,0,0,0,0,0,0,0,0,0,0,0,0,0,0],"id":42,"left_children":[1,3,5,7,9,11,13,-1,-1,-1,-1,-1,-1,-1,-1],"loss_changes":[7.124244E3,1.5818185E4,6.316504E2,5.5674053E3,2.660664E2,3.137234E3,6.985596E1,0E0,0E0,0E0,0E0,0E0,0E0,0E0,0E0],"parents":[2147483647,0,0,1,1,2,2,3,3,4,4,5,5,6,6],"right_children":[2,4,6,8,10,12,14,-1,-1,-1,-1,-1,-1,-1,-1],"split_conditions":[1E0,1.7833585E-2,1E0,1E0,1.9943924E0,7.966634E-3,3.0408811E-3,2.754635E-3,-4.0418312E-2,5.6395628E-2,-4.2427935E-2,-4.5530297E-2,5.4088242E-2,-6.6439904E-2,-4.7445543E-2],"split_indices":[10,10,4,7,13,4,20,0,0,0,0,0,0,0,0],"split_type":[0,0,0,0,0,0,0,0,0,0,0,0,0,0,0],"sum_hessian":[8.0095766E4,7.1118836E4,8.976933E3,5.7414152E4,1.3704682E4,6.51319E3,2.463743E3,4.8591836E4,8.822315E3,1.3636906E4,6.777508E1,5.5937188E3,9.194713E2,1.7803562E3,6.8338666E2],"tree_param":{"num_deleted":"0","num_feature":"22","num_nodes":"15","size_leaf_vector":"1"}},{"base_weights":[4.507552E-2,1.4977416E-1,-7.980613E-1,-7.961692E-2,1.129402E0,1.3918853E0,-8.339501E-1,8.038457E-3,-2.3610674E-2,5.5996876E-2,5.9246E-2,7.450713E-2,6.16143E-2,-3.721796E-2,-7.1028255E-2],"categories":[],"categories_nodes":[],"categories_segments":[],"categories_sizes":[],"default_left":[0,0,0,0,0,0,0,0,0,0,0,0,0,0,0],"id":43,"left_children":[1,3,5,7,9,11,13,-1,-1,-1,-1,-1,-1,-1,-1],"loss_changes":[7.026609E3,1.5911445E4,6.9220605E2,5.4146006E3,5.7304688E0,3.9279175E-1,4.5362158E2,0E0,0E0,0E0,0E0,0E0,0E0,0E0,0E0],"parents":[2147483647,0,0,1,1,2,2,3,3,4,4,5,5,6,6],"right_children":[2,4,6,8,10,12,14,-1,-1,-1,-1,-1,-1,-1,-1],"split_conditions":[1E0,7.108901E-3,0E0,1E0,1E0,0E0,1E0,8.038457E-3,-2.3610674E-2,5.5996876E-2,5.9246E-2,7.450713E-2,6.16143E-2,-3.721796E-2,-7.1028255E-2],"split_indices":[11,11,0,0,6,4,17,0,0,0,0,0,0,0,0],"split_type":[0,0,0,0,0,0,0,0,0,0,0,0,0,0,0],"sum_hessian":[7.959647E4,7.0804914E4,8.791556E3,5.737161E4,1.3433301E4,1.4114346E2,8.650413E3,3.558412E4,2.178749E4,1.1494857E4,1.9384438E3,8.220012E1,5.894334E1,7.5062827E3,1.1441298E3],"tree_param":{"num_deleted":"0","num_feature":"22","num_nodes":"15","size_leaf_vector":"1"}},{"base_weights":[4.3342646E-2,1.5016133E-1,-7.651125E-1,-8.331695E-2,1.1250607E0,6.8146035E-2,-8.007572E-1,2.522175E-3,-3.8050395E-2,5.5862214E-2,5.865522E-2,-3.5287686E-2,-7.3548935E-2],"categories":[],"categories_nodes":[],"categories_segments":[],"categories_sizes":[],"default_left":[0,0,0,0,0,0,0,0,0,0,0,0,0],"id":44,"left_children":[1,3,5,7,9,-1,11,-1,-1,-1,-1,-1,-1],"loss_changes":[6.8343345E3,1.5911265E4,7.016797E2,5.1123765E3,3.7617188E0,0E0,5.774087E2,0E0,0E0,0E0,0E0,0E0,0E0],"parents":[2147483647,0,0,1,1,2,2,3,3,4,4,6,6],"right_children":[2,4,6,8,10,-1,12,-1,-1,-1,-1,-1,-1],"split_conditions":[1E0,1.5032229E-2,0E0,1E0,1E0,6.8146035E-2,1E0,2.522175E-3,-3.8050395E-2,5.5862214E-2,5.865522E-2,-3.5287686E-2,-7.3548935E-2],"split_indices":[8,8,0,9,5,0,16,0,0,0,0,0,0],"split_type":[0,0,0,0,0,0,0,0,0,0,0,0,0],"sum_hessian":[7.9137125E4,6.990201E4,9.235121E3,5.6396535E4,1.350547E4,1.5152724E2,9.083594E3,4.7100848E4,9.2956875E3,1.1636518E4,1.8689517E3,7.9576533E3,1.1259408E3],"tree_param":{"num_deleted":"0","num_feature":"22","num_nodes":"13","size_leaf_vector":"1"}},{"base_weights":[4.1667853E-2,1.6382888E-1,-6.44782E-1,-8.802975E-2,1.1054401E0,-4.888567E-1,-1.0487133E0,3.6530234E-3,-3.2114398E-2,5.4898884E-2,5.751915E-2,-4.0536378E-2,5.6472618E-2,-5.9272844E-2,-3.1540874E-2],"categories":[],"categories_nodes":[],"categories_segments":[],"categories_sizes":[],"default_left":[0,0,0,0,0,0,0,0,0,0,0,0,0,0,0],"id":45,"left_children":[1,3,5,7,9,11,13,-1,-1,-1,-1,-1,-1,-1,-1],"loss_changes":[6.6007627E3,1.5847153E4,7.4846826E2,4.7073184E3,3.4648438E0,4.470991E3,1.8846289E2,0E0,0E0,0E0,0E0,0E0,0E0,0E0,0E0],"parents":[2147483647,0,0,1,1,2,2,3,3,4,4,5,5,6,6],"right_children":[2,4,6,8,10,12,14,-1,-1,-1,-1,-1,-1,-1,-1],"split_conditions":[1E0,1.8700685E-2,1E0,1E0,1E0,7.966634E-3,1.7833585E-2,3.6530234E-3,-3.2114398E-2,5.4898884E-2,5.751915E-2,-4.0536378E-2,5.6472618E-2,-5.9272844E-2,-3.1540874E-2],"split_indices":[19,19,4,20,5,4,10,0,0,0,0,0,0,0,0],"split_type":[0,0,0,0,0,0,0,0,0,0,0,0,0,0,0],"sum_hessian":[7.871187E4,6.68211E4,1.1890763E4,5.2720523E4,1.410058E4,8.580669E3,3.3100933E3,4.0848992E4,1.1871528E4,1.2114462E4,1.9861182E3,7.157574E3,1.4230945E3,2.4926228E3,8.1747046E2],"tree_param":{"num_deleted":"0","num_feature":"22","num_nodes":"15","size_leaf_vector":"1"}},{"base_weights":[4.0158376E-2,1.639632E-1,-6.318536E-1,-1.3108894E-1,1.1179168E0,-5.2722317E-1,-1.2388794E0,1.3275512E-3,-3.2152597E-2,5.5553056E-2,5.79754E-2,-3.649616E-2,5.893838E-2,6.812E-2,-6.353808E-2],"categories":[],"categories_nodes":[],"categories_segments":[],"categories_sizes":[],"default_left":[0,0,0,0,0,0,0,0,0,0,0,0,0,0,0],"id":46,"left_children":[1,3,5,7,9,11,13,-1,-1,-1,-1,-1,-1,-1,-1],"loss_changes":[6.5039365E3,1.858033E4,7.717637E2,4.0691267E3,3.1601562E0,3.588649E3,1.4995923E2,0E0,0E0,0E0,0E0,0E0,0E0,0E0,0E0],"parents":[2147483647,0,0,1,1,2,2,3,3,4,4,5,5,6,6],"right_children":[2,4,6,8,10,12,14,-1,-1,-1,-1,-1,-1,-1,-1],"split_conditions":[1E0,1.1974498E-2,1E0,1E0,1E0,1.7833585E-2,1.8E1,1.3275512E-3,-3.2152597E-2,5.5553056E-2,5.79754E-2,-3.649616E-2,5.893838E-2,6.812E-2,-6.353808E-2],"split_indices":[21,21,10,6,6,10,1,0,0,0,0,0,0,0,0],"split_type":[0,0,0,0,0,0,0,0,0,0,0,0,0,0,0],"sum_hessian":[7.817166E4,6.6011164E4,1.2160487E4,5.0418035E4,1.5593133E4,1.0374199E4,1.7862874E3,3.854919E4,1.1868843E4,1.341034E4,2.1827927E3,9.272987E3,1.1012125E3,2.1123032E1,1.7651644E3],"tree_param":{"num_deleted":"0","num_feature":"22","num_nodes":"15","size_leaf_vector":"1"}},{"base_weights":[3.8728017E-2,1.2847626E-1,-8.4669083E-1,-5.7227623E-2,1.1200068E0,7.0223235E-2,-8.818945E-1,2.553362E-3,-4.302747E-2,5.6647357E-2,-4.311333E-2,-3.94289E-2,-6.805356E-2],"categories":[],"categories_nodes":[],"categories_segments":[],"categories_sizes":[],"default_left":[0,0,0,0,0,0,0,0,0,0,0,0,0],"id":47,"left_children":[1,3,5,7,9,-1,11,-1,-1,-1,-1,-1,-1],"loss_changes":[6.1701147E3,1.2981211E4,5.6755664E2,5.165794E3,2.8624316E2,0E0,3.135703E2,0E0,0E0,0E0,0E0,0E0,0E0],"parents":[2147483647,0,0,1,1,2,2,3,3,4,4,6,6],"right_children":[2,4,6,8,10,-1,12,-1,-1,-1,-1,-1,-1],"split_conditions":[1E0,1.3462736E-3,0E0,1E0,1E0,7.0223235E-2,1E0,2.553362E-3,-4.302747E-2,5.6647357E-2,-4.311333E-2,-3.94289E-2,-6.805356E-2],"split_indices":[16,16,12,14,13,0,10,0,0,0,0,0,0],"split_type":[0,0,0,0,0,0,0,0,0,0,0,0,0],"sum_hessian":[7.764352E4,7.049848E4,7.145046E3,5.937843E4,1.1120051E4,1.094155E2,7.0356304E3,5.2325434E4,7.0529937E3,1.1048356E4,7.169505E1,5.8910347E3,1.144596E3],"tree_param":{"num_deleted":"0","num_feature":"22","num_nodes":"13","size_leaf_vector":"1"}},{"base_weights":[3.72029E-2,1.2957828E-1,-8.291761E-1,-5.8775272E-2,1.1232573E0,6.6559955E-2,-8.558092E-1,2.48704E-3,-4.1555785E-2,5.569939E-2,5.8672316E-2,-3.5270117E-2,-6.175212E-2],"categories":[],"categories_nodes":[],"categories_segments":[],"categories_sizes":[],"default_left":[0,0,0,0,0,0,0,0,0,0,0,0,0],"id":48,"left_children":[1,3,5,7,9,-1,11,-1,-1,-1,-1,-1,-1],"loss_changes":[6.1815566E3,1.306334E4,4.2932617E2,4.9177026E3,3.868164E0,0E0,4.1847412E2,0E0,0E0,0E0,0E0,0E0,0E0],"parents":[2147483647,0,0,1,1,2,2,3,3,4,4,6,6],"right_children":[2,4,6,8,10,-1,12,-1,-1,-1,-1,-1,-1],"split_conditions":[1E0,1.1063321E-2,0E0,1E0,1E0,6.6559955E-2,9.954902E-1,2.48704E-3,-4.1555785E-2,5.569939E-2,5.8672316E-2,-3.5270117E-2,-6.175212E-2],"split_indices":[13,13,12,17,5,0,4,0,0,0,0,0,0],"split_type":[0,0,0,0,0,0,0,0,0,0,0,0,0],"sum_hessian":[7.723614E4,6.979525E4,7.440884E3,5.8674367E4,1.1120885E4,9.0017525E1,7.350866E3,5.144687E4,7.227499E3,9.406743E3,1.7141414E3,5.265419E3,2.0854473E3],"tree_param":{"num_deleted":"0","num_feature":"22","num_nodes":"13","size_leaf_vector":"1"}},{"base_weights":[3.5748336E-2,1.8572667E-1,-4.782128E-1,-1.7384826E-1,1.0874226E0,-3.462306E-1,-1.0496429E0,-4.1632266E-3,-4.8230484E-2,5.509199E-2,-4.43569E-2,-3.004742E-2,5.659653E-2,-4.870161E-2,-7.5300545E-2],"categories":[],"categories_nodes":[],"categories_segments":[],"categories_sizes":[],"default_left":[0,0,0,0,0,0,0,0,0,0,0,0,0,0,0],"id":49,"left_children":[1,3,5,7,9,11,13,-1,-1,-1,-1,-1,-1,-1,-1],"loss_changes":[5.9230835E3,1.9286055E4,1.3087224E3,3.0460315E3,4.8372852E2,5.3103784E3,1.1089722E2,0E0,0E0,0E0,0E0,0E0,0E0,0E0,0E0],"parents":[2147483647,0,0,1,1,2,2,3,3,4,4,5,5,6,6],"right_children":[2,4,6,8,10,12,14,-1,-1,-1,-1,-1,-1,-1,-1],"split_conditions":[1E0,7.966634E-3,1E0,1E0,2.241976E0,1.6680568E-2,1E0,-4.1632266E-3,-4.8230484E-2,5.509199E-2,-4.43569E-2,-3.004742E-2,5.659653E-2,-4.870161E-2,-7.5300545E-2],"split_indices":[4,4,18,16,12,18,15,0,0,0,0,0,0,0,0],"split_type":[0,0,0,0,0,0,0,0,0,0,0,0,0,0,0],"sum_hessian":[7.683816E4,5.9481555E4,1.7356598E4,4.2524574E4,1.6956982E4,1.410126E4,3.2553374E3,3.8154934E4,4.3696387E3,1.6834508E4,1.2247398E2,1.2029006E4,2.0722537E3,2.7953418E3,4.5999554E2],"tree_param":{"num_deleted":"0","num_feature":"22","num_nodes":"15","size_leaf_vector":"1"}},{"base_weights":[3.4571905E-2,1.24718376E-1,-8.061897E-1,-6.095358E-2,1.1239663E0,7.47421E-2,-8.3084935E-1,2.2706727E-3,-4.0463995E-2,5.5850815E-2,5.9609395E-2,-4.7934316E-2,-2.5422037E-2],"categories":[],"categories_nodes":[],"categories_segments":[],"categories_sizes":[],"default_left":[0,0,0,0,0,0,0,0,0,0,0,0,0],"id":50,"left_children":[1,3,5,7,9,-1,11,-1,-1,-1,-1,-1,-1],"loss_changes":[5.7792173E3,1.2777132E4,4.20229E2,4.6227915E3,3.7851562E0,0E0,3.0064746E2,0E0,0E0,0E0,0E0,0E0,0E0],"parents":[2147483647,0,0,1,1,2,2,3,3,4,4,6,6],"right_children":[2,4,6,8,10,-1,12,-1,-1,-1,-1,-1,-1],"split_conditions":[1E0,2.518431E-2,0E0,1E0,1E0,7.47421E-2,3.0408811E-3,2.2706727E-3,-4.0463995E-2,5.5850815E-2,5.9609395E-2,-4.7934316E-2,-2.5422037E-2],"split_indices":[12,12,0,15,20,0,20,0,0,0,0,0,0],"split_type":[0,0,0,0,0,0,0,0,0,0,0,0,0],"sum_hessian":[7.624901E4,6.886604E4,7.3829663E3,5.8075816E4,1.0790226E4,7.7650635E1,7.3053154E3,5.084907E4,7.226743E3,9.808369E3,9.818564E2,5.229725E3,2.0755903E3],"tree_param":{"num_deleted":"0","num_feature":"22","num_nodes":"13","size_leaf_vector":"1"}},{"base_weights":[3.322528E-2,1.3110705E-1,-7.1342343E-1,-7.888057E-2,1.1177074E0,1.3685635E0,-7.458668E-1,2.0997238E-3,-3.563087E-2,5.5370986E-2,5.8748502E-2,7.3159166E-2,6.0283553E-2,-3.1987164E-2,-5.7651967E-2],"categories":[],"categories_nodes":[],"categories_segments":[],"categories_sizes":[],"default_left":[0,0,0,0,0,0,0,0,0,0,0,0,0,0,0],"id":51,"left_children":[1,3,5,7,9,11,13,-1,-1,-1,-1,-1,-1,-1,-1],"loss_changes":[5.5451426E3,1.3897332E4,5.9501904E2,4.236882E3,5.6328125E0,3.210144E-1,3.7344922E2,0E0,0E0,0E0,0E0,0E0,0E0,0E0,0E0],"parents":[2147483647,0,0,1,1,2,2,3,3,4,4,5,5,6,6],"right_children":[2,4,6,8,10,12,14,-1,-1,-1,-1,-1,-1,-1,-1],"split_conditions":[1E0,7.108901E-3,0E0,1E0,1E0,0E0,1E0,2.0997238E-3,-3.563087E-2,5.5370986E-2,5.8748502E-2,7.3159166E-2,6.0283553E-2,-3.1987164E-2,-5.7651967E-2],"split_indices":[11,11,0,7,6,4,18,0,0,0,0,0,0,0,0],"split_type":[0,0,0,0,0,0,0,0,0,0,0,0,0,0,0],"sum_hessian":[7.5872E4,6.70791E4,8.792897E3,5.530824E4,1.1770863E4,1.3428435E2,8.658613E3,4.6449652E4,8.858586E3,9.995448E3,1.7754149E3,7.989375E1,5.4390594E1,6.870492E3,1.7881212E3],"tree_param":{"num_deleted":"0","num_feature":"22","num_nodes":"15","size_leaf_vector":"1"}},{"base_weights":[3.1972133E-2,1.3048998E-1,-6.9976246E-1,-7.703244E-2,1.1022751E0,1.4182444E0,-7.2376424E-1,2.4242876E-3,-3.504666E-2,5.564369E-2,-3.6097597E-2,7.729115E-2,6.1559107E-2,-3.088419E-2,-5.7125866E-2],"categories":[],"categories_nodes":[],"categories_segments":[],"categories_sizes":[],"default_left":[0,0,0,0,0,0,0,0,0,0,0,0,0,0,0],"id":52,"left_children":[1,3,5,7,9,11,13,-1,-1,-1,-1,-1,-1,-1,-1],"loss_changes":[5.4389375E3,1.3409893E4,4.561416E2,4.2910483E3,2.2703516E2,4.9894714E-1,3.9255713E2,0E0,0E0,0E0,0E0,0E0,0E0,0E0,0E0],"parents":[2147483647,0,0,1,1,2,2,3,3,4,4,5,5,6,6],"right_children":[2,4,6,8,10,12,14,-1,-1,-1,-1,-1,-1,-1,-1],"split_conditions":[1E0,1.7833585E-2,0E0,1E0,1.9943924E0,0E0,1E0,2.4242876E-3,-3.504666E-2,5.564369E-2,-3.6097597E-2,7.729115E-2,6.1559107E-2,-3.088419E-2,-5.7125866E-2],"split_indices":[10,10,12,8,13,4,21,0,0,0,0,0,0,0,0],"split_type":[0,0,0,0,0,0,0,0,0,0,0,0,0,0,0],"sum_hessian":[7.544536E4,6.649373E4,8.951631E3,5.47936E4,1.1700123E4,9.965439E1,8.851976E3,4.5617137E4,9.176468E3,1.1632927E4,6.719639E1,5.4928673E1,4.4725716E1,7.064771E3,1.7872048E3],"tree_param":{"num_deleted":"0","num_feature":"22","num_nodes":"15","size_leaf_vector":"1"}},{"base_weights":[3.0770963E-2,1.3177232E-1,-6.795153E-1,-9.53793E-2,1.1095042E0,-4.5454687E-1,-9.7788763E-1,1.1978368E-3,-3.43735E-2,5.6030985E-2,-3.8086515E-2,-1.4605953E-2,-4.6117857E-2,-1.6970463E-3,-5.1115345E-2],"categories":[],"categories_nodes":[],"categories_segments":[],"categories_sizes":[],"default_left":[0,0,0,0,0,0,0,0,0,0,0,0,0,0,0],"id":53,"left_children":[1,3,5,7,9,11,13,-1,-1,-1,-1,-1,-1,-1,-1],"loss_changes":[5.3827563E3,1.4589476E4,6.2656885E2,3.76656E3,2.5844434E2,4.0454248E2,1.6829443E2,0E0,0E0,0E0,0E0,0E0,0E0,0E0,0E0],"parents":[2147483647,0,0,1,1,2,2,3,3,4,4,5,5,6,6],"right_children":[2,4,6,8,10,12,14,-1,-1,-1,-1,-1,-1,-1,-1],"split_conditions":[1E0,4.7831093E-3,1E0,1E0,2.241976E0,1E0,1.80548E3,1.1978368E-3,-3.43735E-2,5.6030985E-2,-3.8086515E-2,-1.4605953E-2,-4.6117857E-2,-1.6970463E-3,-5.1115345E-2],"split_indices":[9,9,0,21,12,6,2,0,0,0,0,0,0,0,0],"split_type":[0,0,0,0,0,0,0,0,0,0,0,0,0,0,0],"sum_hessian":[7.502933E4,6.568926E4,9.340073E3,5.3305867E4,1.2383388E4,5.326496E3,4.0135771E3,4.436504E4,8.940827E3,1.2310661E4,7.272623E1,3.9549329E3,1.371563E3,1.8045828E2,3.833119E3],"tree_param":{"num_deleted":"0","num_feature":"22","num_nodes":"15","size_leaf_vector":"1"}},{"base_weights":[2.9633438E-2,1.4563602E-1,-5.7867473E-1,-1.11097775E-1,1.10268E0,-4.346721E-1,-9.592026E-1,-8.624253E-4,-4.483847E-2,5.4753777E-2,5.7365548E-2,-3.5944972E-2,5.683409E-2,-4.3901775E-2,-6.667996E-2],"categories":[],"categories_nodes":[],"categories_segments":[],"categories_sizes":[],"default_left":[0,0,0,0,0,0,0,0,0,0,0,0,0,0,0],"id":54,"left_children":[1,3,5,7,9,11,13,-1,-1,-1,-1,-1,-1,-1,-1],"loss_changes":[5.2648545E3,1.5396098E4,6.543623E2,3.643033E3,3.241211E0,3.873262E3,9.849341E1,0E0,0E0,0E0,0E0,0E0,0E0,0E0,0E0],"parents":[2147483647,0,0,1,1,2,2,3,3,4,4,5,5,6,6],"right_children":[2,4,6,8,10,12,14,-1,-1,-1,-1,-1,-1,-1,-1],"split_conditions":[1E0,1.6680568E-2,1E0,1E0,9.8932266E-1,7.966634E-3,1E0,-8.624253E-4,-4.483847E-2,5.4753777E-2,5.7365548E-2,-3.5944972E-2,5.683409E-2,-4.3901775E-2,-6.667996E-2],"split_indices":[18,18,4,13,6,4,9,0,0,0,0,0,0,0,0],"split_type":[0,0,0,0,0,0,0,0,0,0,0,0,0,0,0],"sum_hessian":[7.460746E4,6.265928E4,1.194818E4,4.9406516E4,1.3252764E4,8.669525E3,3.2786543E3,4.4135508E4,5.2710093E3,1.1345255E4,1.9075087E3,7.3420366E3,1.327489E3,2.6972505E3,5.814039E2],"tree_param":{"num_deleted":"0","num_feature":"22","num_nodes":"15","size_leaf_vector":"1"}},{"base_weights":[2.8619288E-2,1.7178519E-1,-4.464572E-1,-1.3730574E-1,1.0917145E0,-3.332769E-1,-9.2147094E-1,3.4530354E-3,-2.2490032E-2,5.436496E-2,5.6670584E-2,-2.7193109E-2,5.668382E-2,-5.1020946E-2,-3.0778179E-2],"categories":[],"categories_nodes":[],"categories_segments":[],"categories_sizes":[],"default_left":[0,0,0,0,0,0,0,0,0,0,0,0,0,0,0],"id":55,"left_children":[1,3,5,7,9,11,13,-1,-1,-1,-1,-1,-1,-1,-1],"loss_changes":[5.0401953E3,1.6191703E4,9.2226953E2,2.7487751E3,1.4042969E0,4.282199E3,9.9302246E1,0E0,0E0,0E0,0E0,0E0,0E0,0E0,0E0],"parents":[2147483647,0,0,1,1,2,2,3,3,4,4,5,5,6,6],"right_children":[2,4,6,8,10,12,14,-1,-1,-1,-1,-1,-1,-1,-1],"split_conditions":[1E0,1.7120607E-2,1E0,1E0,9.8902935E-1,1.8700685E-2,7.108901E-3,3.4530354E-3,-2.2490032E-2,5.436496E-2,5.6670584E-2,-2.7193109E-2,5.668382E-2,-5.1020946E-2,-3.0778179E-2],"split_indices":[5,5,19,0,21,19,11,0,0,0,0,0,0,0,0],"split_type":[0,0,0,0,0,0,0,0,0,0,0,0,0,0,0],"sum_hessian":[7.4102305E4,5.694298E4,1.715932E4,4.2622812E4,1.4320169E4,1.3858898E4,3.3004229E3,2.5670934E4,1.6951879E4,1.2973498E4,1.3466708E3,1.2119709E4,1.7391892E3,2.4920242E3,8.083988E2],"tree_param":{"num_deleted":"0","num_feature":"22","num_nodes":"15","size_leaf_vector":"1"}},{"base_weights":[2.7700001E-2,1.401481E-1,-5.62094E-1,-1.12960555E-1,1.1019089E0,-4.320106E-1,-8.986162E-1,-1.3100555E-3,-4.2515796E-2,5.474024E-2,5.708849E-2,-3.4231946E-2,5.613304E-2,-4.9632125E-2,-3.2822806E-2],"categories":[],"categories_nodes":[],"categories_segments":[],"categories_sizes":[],"default_left":[0,0,0,0,0,0,0,0,0,0,0,0,0,0,0],"id":56,"left_children":[1,3,5,7,9,11,13,-1,-1,-1,-1,-1,-1,-1,-1],"loss_changes":[4.877821E3,1.5037066E4,5.15166E2,3.128394E3,2.3935547E0,3.3375044E3,7.408667E1,0E0,0E0,0E0,0E0,0E0,0E0,0E0,0E0],"parents":[2147483647,0,0,1,1,2,2,3,3,4,4,5,5,6,6],"right_children":[2,4,6,8,10,12,14,-1,-1,-1,-1,-1,-1,-1,-1],"split_conditions":[1E0,3.0408811E-3,1E0,1E0,1E0,7.966634E-3,7.599803E4,-1.3100555E-3,-4.2515796E-2,5.474024E-2,5.708849E-2,-3.4231946E-2,5.613304E-2,-4.9632125E-2,-3.2822806E-2],"split_indices":[20,20,4,17,5,4,3,0,0,0,0,0,0,0,0],"split_type":[0,0,0,0,0,0,0,0,0,0,0,0,0,0,0],"sum_hessian":[7.3546234E4,6.1770117E4,1.1776117E4,4.890149E4,1.2868628E4,8.494739E3,3.2813772E3,4.3754266E4,5.147223E3,1.0946217E4,1.9224109E3,7.3078076E3,1.186932E3,2.3613926E3,9.1998456E2],"tree_param":{"num_deleted":"0","num_feature":"22","num_nodes":"15","size_leaf_vector":"1"}},{"base_weights":[2.6758429E-2,1.1061695E-1,-7.5389266E-1,-7.8117736E-2,1.1306736E0,7.236295E-2,-8.0155957E-1,1.0740958E-3,-3.662676E-2,5.5938985E-2,5.980664E-2,-4.5576777E-2,-2.2927493E-2],"categories":[],"categories_nodes":[],"categories_segments":[],"categories_sizes":[],"default_left":[0,0,0,0,0,0,0,0,0,0,0,0,0],"id":57,"left_children":[1,3,5,7,9,-1,11,-1,-1,-1,-1,-1,-1],"loss_changes":[4.7820806E3,1.2699219E4,7.446194E2,3.6282136E3,6.680664E0,0E0,2.612378E2,0E0,0E0,0E0,0E0,0E0,0E0],"parents":[2147483647,0,0,1,1,2,2,3,3,4,4,6,6],"right_children":[2,4,6,8,10,-1,12,-1,-1,-1,-1,-1,-1],"split_conditions":[1E0,2.7552755E-3,0E0,1E0,1E0,7.236295E-2,1.5032229E-2,1.0740958E-3,-3.662676E-2,5.5938985E-2,5.980664E-2,-4.5576777E-2,-2.2927493E-2],"split_indices":[14,14,0,12,6,0,8,0,0,0,0,0,0],"split_type":[0,0,0,0,0,0,0,0,0,0,0,0,0],"sum_hessian":[7.304646E4,6.596163E4,7.084823E3,5.5663492E4,1.0298144E4,1.4955049E2,6.9352725E3,4.831163E4,7.351864E3,8.729997E3,1.5681458E3,5.2502705E3,1.6850022E3],"tree_param":{"num_deleted":"0","num_feature":"22","num_nodes":"13","size_leaf_vector":"1"}},{"base_weights":[2.5756342E-2,1.08838096E-1,-7.3749113E-1,-5.8971677E-2,1.1065459E0,6.882902E-2,-7.6905966E-1,2.0584848E-3,-3.7020423E-2,5.6016035E-2,-3.3825677E-2,-3.2582026E-2,-5.2848138E-2],"categories":[],"categories_nodes":[],"categories_segments":[],"categories_sizes":[],"default_left":[0,0,0,0,0,0,0,0,0,0,0,0,0],"id":58,"left_children":[1,3,5,7,9,-1,11,-1,-1,-1,-1,-1,-1],"loss_changes":[4.607975E3,1.09720205E4,4.771377E2,3.8282283E3,2.325039E2,0E0,2.369375E2,0E0,0E0,0E0,0E0,0E0,0E0],"parents":[2147483647,0,0,1,1,2,2,3,3,4,4,6,6],"right_children":[2,4,6,8,10,-1,12,-1,-1,-1,-1,-1,-1],"split_conditions":[1E0,1.3462736E-3,0E0,1E0,1E0,6.882902E-2,1E0,2.0584848E-3,-3.7020423E-2,5.6016035E-2,-3.3825677E-2,-3.2582026E-2,-5.2848138E-2],"split_indices":[16,16,12,15,13,0,6,0,0,0,0,0,0],"split_type":[0,0,0,0,0,0,0,0,0,0,0,0,0],"sum_hessian":[7.2665055E4,6.5532504E4,7.13255E3,5.609802E4,9.434482E3,1.0431326E2,7.0282363E3,4.891116E4,7.18686E3,9.362525E3,7.195682E1,4.994522E3,2.0337146E3],"tree_param":{"num_deleted":"0","num_feature":"22","num_nodes":"13","size_leaf_vector":"1"}},{"base_weights":[2.477685E-2,1.0944554E-1,-7.1367466E-1,-5.977088E-2,1.110774E0,6.924621E-2,-7.371835E-1,1.9417253E-3,-3.588171E-2,5.503902E-2,5.8084078E-2,-3.2518797E-2,-5.901134E-2],"categories":[],"categories_nodes":[],"categories_segments":[],"categories_sizes":[],"default_left":[0,0,0,0,0,0,0,0,0,0,0,0,0],"id":59,"left_children":[1,3,5,7,9,-1,11,-1,-1,-1,-1,-1,-1],"loss_changes":[4.521036E3,1.0991879E4,3.679773E2,3.5998606E3,3.4921875E0,0E0,2.8214844E2,0E0,0E0,0E0,0E0,0E0,0E0],"parents":[2147483647,0,0,1,1,2,2,3,3,4,4,6,6],"right_children":[2,4,6,8,10,-1,12,-1,-1,-1,-1,-1,-1],"split_conditions":[1E0,1.1063321E-2,0E0,1E0,1E0,6.924621E-2,1E0,1.9417253E-3,-3.588171E-2,5.503902E-2,5.8084078E-2,-3.2518797E-2,-5.901134E-2],"split_indices":[13,13,0,17,5,0,9,0,0,0,0,0,0],"split_type":[0,0,0,0,0,0,0,0,0,0,0,0,0],"sum_hessian":[7.230688E4,6.4869938E4,7.436946E3,5.5493008E4,9.376929E3,8.17455E1,7.3552E3,4.8260336E4,7.232673E3,7.857106E3,1.5198229E3,6.152232E3,1.2029685E3],"tree_param":{"num_deleted":"0","num_feature":"22","num_nodes":"13","size_leaf_vector":"1"}},{"base_weights":[2.384376E-2,1.3310957E-1,-5.384344E-1,-8.560634E-2,1.0878843E0,-4.083471E-1,-8.58039E-1,2.8024088E-3,-2.649948E-2,5.4094225E-2,5.612247E-2,-3.3001978E-2,5.5592805E-2,-3.8253E-2,-6.653828E-2],"categories":[],"categories_nodes":[],"categories_segments":[],"categories_sizes":[],"default_left":[0,0,0,0,0,0,0,0,0,0,0,0,0,0,0],"id":60,"left_children":[1,3,5,7,9,11,13,-1,-1,-1,-1,-1,-1,-1,-1],"loss_changes":[4.4202563E3,1.2579749E4,4.8635913E2,3.0853838E3,1.1123047E0,3.1848699E3,1.4778784E2,0E0,0E0,0E0,0E0,0E0,0E0,0E0,0E0],"parents":[2147483647,0,0,1,1,2,2,3,3,4,4,5,5,6,6],"right_children":[2,4,6,8,10,12,14,-1,-1,-1,-1,-1,-1,-1,-1],"split_conditions":[1E0,1.8700685E-2,1E0,1E0,9.8879725E-1,7.966634E-3,1E0,2.8024088E-3,-2.649948E-2,5.4094225E-2,5.612247E-2,-3.3001978E-2,5.5592805E-2,-3.8253E-2,-6.653828E-2],"split_indices":[19,19,4,18,5,4,9,0,0,0,0,0,0,0,0],"split_type":[0,0,0,0,0,0,0,0,0,0,0,0,0,0,0],"sum_hessian":[7.194471E4,6.0239344E4,1.1705367E4,4.9012637E4,1.1226705E4,8.320848E3,3.3845193E3,3.716618E4,1.184646E4,9.593712E3,1.6329938E3,7.139382E3,1.181466E3,2.8304294E3,5.5408984E2],"tree_param":{"num_deleted":"0","num_feature":"22","num_nodes":"15","size_leaf_vector":"1"}},{"base_weights":[2.3044098E-2,1.1433325E-1,-6.2716776E-1,-9.615913E-2,1.1163248E0,6.75053E-2,-6.493083E-1,6.278574E-4,-3.1740535E-2,5.5316437E-2,5.8696598E-2,-2.754568E-2,-5.1464792E-2],"categories":[],"categories_nodes":[],"categories_segments":[],"categories_sizes":[],"default_left":[0,0,0,0,0,0,0,0,0,0,0,0,0],"id":61,"left_children":[1,3,5,7,9,-1,11,-1,-1,-1,-1,-1,-1],"loss_changes":[4.242443E3,1.3218665E4,3.8609277E2,3.0330747E3,4.966797E0,0E0,3.2481104E2,0E0,0E0,0E0,0E0,0E0,0E0],"parents":[2147483647,0,0,1,1,2,2,3,3,4,4,6,6],"right_children":[2,4,6,8,10,-1,12,-1,-1,-1,-1,-1,-1],"split_conditions":[1E0,1.4067286E-2,1.8E1,1E0,1E0,6.75053E-2,1E0,6.278574E-4,-3.1740535E-2,5.5316437E-2,5.8696598E-2,-2.754568E-2,-5.1464792E-2],"split_indices":[7,7,1,11,6,0,21,0,0,0,0,0,0],"split_type":[0,0,0,0,0,0,0,0,0,0,0,0,0],"sum_hessian":[7.147079E4,6.2672453E4,8.798331E3,5.1792996E4,1.0879458E4,9.67642E1,8.701566E3,4.3095906E4,8.697089E3,9.288002E3,1.591456E3,6.9137544E3,1.7878121E3],"tree_param":{"num_deleted":"0","num_feature":"22","num_nodes":"13","size_leaf_vector":"1"}},{"base_weights":[2.222712E-2,1.5720946E-1,-4.1145366E-1,-1.5422921E-1,1.0696226E0,-3.1289428E-1,-9.588997E-1,-2.9391383E-3,-3.7039082E-2,5.4311186E-2,-3.4096498E-2,-2.5050107E-2,5.7623804E-2,-5.4127075E-2,-3.3312872E-2],"categories":[],"categories_nodes":[],"categories_segments":[],"categories_sizes":[],"default_left":[0,0,0,0,0,0,0,0,0,0,0,0,0,0,0],"id":62,"left_children":[1,3,5,7,9,11,13,-1,-1,-1,-1,-1,-1,-1,-1],"loss_changes":[4.1602856E3,1.5401356E4,9.0990137E2,2.2621455E3,4.0179102E2,3.9415452E3,9.23855E1,0E0,0E0,0E0,0E0,0E0,0E0,0E0,0E0],"parents":[2147483647,0,0,1,1,2,2,3,3,4,4,5,5,6,6],"right_children":[2,4,6,8,10,12,14,-1,-1,-1,-1,-1,-1,-1,-1],"split_conditions":[1E0,7.966634E-3,1E0,1E0,1.9943924E0,4.7831093E-3,1.1974498E-2,-2.9391383E-3,-3.7039082E-2,5.4311186E-2,-3.4096498E-2,-2.5050107E-2,5.7623804E-2,-5.4127075E-2,-3.3312872E-2],"split_indices":[4,4,9,8,13,9,21,0,0,0,0,0,0,0,0],"split_type":[0,0,0,0,0,0,0,0,0,0,0,0,0,0,0],"sum_hessian":[7.106621E4,5.4197867E4,1.6868348E4,4.040653E4,1.3791337E4,1.4296119E4,2.5722288E3,3.475254E4,5.6539897E3,1.3662227E4,1.2910968E2,1.2670305E4,1.625814E3,1.8063457E3,7.6588306E2],"tree_param":{"num_deleted":"0","num_feature":"22","num_nodes":"15","size_leaf_vector":"1"}},{"base_weights":[2.1566119E-2,1.1262673E-1,-6.139677E-1,-7.424428E-2,1.0921367E0,1.41279E0,-6.3559115E-1,1.978699E-3,-3.0146766E-2,5.5176068E-2,-2.894257E-2,7.675857E-2,6.120291E-2,-2.8138965E-2,-5.5581786E-2],"categories":[],"categories_nodes":[],"categories_segments":[],"categories_sizes":[],"default_left":[0,0,0,0,0,0,0,0,0,0,0,0,0,0,0],"id":63,"left_children":[1,3,5,7,9,11,13,-1,-1,-1,-1,-1,-1,-1,-1],"loss_changes":[4.0822297E3,1.1293468E4,3.8832764E2,3.1179338E3,1.8868652E2,2.8349304E-1,3.0258325E2,0E0,0E0,0E0,0E0,0E0,0E0,0E0,0E0],"parents":[2147483647,0,0,1,1,2,2,3,3,4,4,5,5,6,6],"right_children":[2,4,6,8,10,12,14,-1,-1,-1,-1,-1,-1,-1,-1],"split_conditions":[1E0,1.7833585E-2,0E0,1E0,1.9943924E0,0E0,1E0,1.978699E-3,-3.0146766E-2,5.5176068E-2,-2.894257E-2,7.675857E-2,6.120291E-2,-2.8138965E-2,-5.5581786E-2],"split_indices":[10,10,13,9,13,4,14,0,0,0,0,0,0,0,0],"split_type":[0,0,0,0,0,0,0,0,0,0,0,0,0,0,0],"sum_hessian":[7.053663E4,6.1697332E4,8.839299E3,5.181331E4,9.884023E3,9.263151E1,8.746668E3,4.2635523E4,9.177783E3,9.817476E3,6.654762E1,5.1865574E1,4.0765934E1,7.588219E3,1.1584485E3],"tree_param":{"num_deleted":"0","num_feature":"22","num_nodes":"15","size_leaf_vector":"1"}},{"base_weights":[2.0793533E-2,1.2637225E-1,-5.122917E-1,-1.0461937E-1,1.0930958E0,1.4495496E0,-5.315536E-1,-1.0811936E-3,-3.80095E-2,5.430744E-2,5.654331E-2,7.7668004E-2,6.2404763E-2,-2.216152E-2,-4.8765685E-2],"categories":[],"categories_nodes":[],"categories_segments":[],"categories_sizes":[],"default_left":[0,0,0,0,0,0,0,0,0,0,0,0,0,0,0],"id":64,"left_children":[1,3,5,7,9,11,13,-1,-1,-1,-1,-1,-1,-1,-1],"loss_changes":[3.9490151E3,1.3077995E4,4.390818E2,2.571978E3,1.7353516E0,4.253235E-1,4.4979077E2,0E0,0E0,0E0,0E0,0E0,0E0,0E0,0E0],"parents":[2147483647,0,0,1,1,2,2,3,3,4,4,5,5,6,6],"right_children":[2,4,6,8,10,12,14,-1,-1,-1,-1,-1,-1,-1,-1],"split_conditions":[1E0,3.0408811E-3,1.8E1,1E0,1E0,0E0,1E0,-1.0811936E-3,-3.80095E-2,5.430744E-2,5.654331E-2,7.7668004E-2,6.2404763E-2,-2.216152E-2,-4.8765685E-2],"split_indices":[20,20,1,12,5,4,8,0,0,0,0,0,0,0,0],"split_type":[0,0,0,0,0,0,0,0,0,0,0,0,0,0,0],"sum_hessian":[7.016208E4,5.8564098E4,1.1597985E4,4.7270133E4,1.1293965E4,1.1204307E2,1.1485942E4,4.195912E4,5.311009E3,9.564521E3,1.7294429E3,6.951225E1,4.253082E1,9.580999E3,1.9049435E3],"tree_param":{"num_deleted":"0","num_feature":"22","num_nodes":"15","size_leaf_vector":"1"}},{"base_weights":[2.0091118E-2,9.942724E-2,-6.8727183E-1,-7.358271E-2,1.1212713E0,6.973788E-2,-7.297894E-1,9.409127E-4,-3.4153134E-2,5.5470735E-2,5.921368E-2,-3.1618137E-2,-5.3897317E-2],"categories":[],"categories_nodes":[],"categories_segments":[],"categories_sizes":[],"default_left":[0,0,0,0,0,0,0,0,0,0,0,0,0],"id":65,"left_children":[1,3,5,7,9,-1,11,-1,-1,-1,-1,-1,-1],"loss_changes":[3.9142175E3,1.1087222E4,6.2367505E2,3.0205005E3,5.46875E0,0E0,2.3315283E2,0E0,0E0,0E0,0E0,0E0,0E0],"parents":[2147483647,0,0,1,1,2,2,3,3,4,4,6,6],"right_children":[2,4,6,8,10,-1,12,-1,-1,-1,-1,-1,-1],"split_conditions":[1E0,2.7552755E-3,0E0,1E0,1E0,6.973788E-2,1E0,9.409127E-4,-3.4153134E-2,5.5470735E-2,5.921368E-2,-3.1618137E-2,-5.3897317E-2],"split_indices":[14,14,0,16,6,0,21,0,0,0,0,0,0],"split_type":[0,0,0,0,0,0,0,0,0,0,0,0,0],"sum_hessian":[6.9745766E4,6.2712902E4,7.032868E3,5.3633125E4,9.079776E3,1.4010892E2,6.8927593E3,4.6573293E4,7.0598325E3,7.657334E3,1.4224425E3,5.387862E3,1.5048976E3],"tree_param":{"num_deleted":"0","num_feature":"22","num_nodes":"13","size_leaf_vector":"1"}},{"base_weights":[1.936541E-2,9.86381E-2,-6.6513246E-1,-7.481753E-2,1.1145122E0,6.6217825E-2,-6.890089E-1,1.6798334E-3,-2.8899852E-2,5.523151E-2,6.0332086E-2,-2.9919088E-2,-5.118989E-2],"categories":[],"categories_nodes":[],"categories_segments":[],"categories_sizes":[],"default_left":[0,0,0,0,0,0,0,0,0,0,0,0,0],"id":66,"left_children":[1,3,5,7,9,-1,11,-1,-1,-1,-1,-1,-1],"loss_changes":[3.7650815E3,1.0957665E4,3.430105E2,2.8976348E3,6.923828E0,0E0,2.1532446E2,0E0,0E0,0E0,0E0,0E0,0E0],"parents":[2147483647,0,0,1,1,2,2,3,3,4,4,6,6],"right_children":[2,4,6,8,10,-1,12,-1,-1,-1,-1,-1,-1],"split_conditions":[1E0,1.632005E-2,1.8E1,1E0,1E0,6.6217825E-2,1E0,1.6798334E-3,-2.8899852E-2,5.523151E-2,6.0332086E-2,-2.9919088E-2,-5.118989E-2],"split_indices":[15,15,1,21,20,0,18,0,0,0,0,0,0],"split_type":[0,0,0,0,0,0,0,0,0,0,0,0,0],"sum_hessian":[6.938488E4,6.2184105E4,7.2007754E3,5.311577E4,9.068336E3,8.4747765E1,7.116028E3,4.3700965E4,9.414802E3,8.201607E3,8.667284E2,5.6022817E3,1.5137462E3],"tree_param":{"num_deleted":"0","num_feature":"22","num_nodes":"13","size_leaf_vector":"1"}},{"base_weights":[1.8673116E-2,1.4869124E-1,-3.897048E-1,-1.2612912E-1,1.0810317E0,-3.1221798E-1,-9.096875E-1,-1.8612758E-3,-3.426688E-2,5.3816367E-2,5.6104522E-2,-2.3294767E-2,5.7645332E-2,6.283179E-2,-4.6428498E-2],"categories":[],"categories_nodes":[],"categories_segments":[],"categories_sizes":[],"default_left":[0,0,0,0,0,0,0,0,0,0,0,0,0,0,0],"id":67,"left_children":[1,3,5,7,9,11,13,-1,-1,-1,-1,-1,-1,-1,-1],"loss_changes":[3.6657559E3,1.3417908E4,6.7147974E2,2.0107754E3,1.0957031E0,3.267942E3,8.959424E1,0E0,0E0,0E0,0E0,0E0,0E0,0E0,0E0],"parents":[2147483647,0,0,1,1,2,2,3,3,4,4,5,5,6,6],"right_children":[2,4,6,8,10,12,14,-1,-1,-1,-1,-1,-1,-1,-1],"split_conditions":[1E0,1.7120607E-2,1E0,1E0,9.8902935E-1,1.1063321E-2,1.8E1,-1.8612758E-3,-3.426688E-2,5.3816367E-2,5.6104522E-2,-2.3294767E-2,5.7645332E-2,6.283179E-2,-4.6428498E-2],"split_indices":[5,5,13,7,21,13,1,0,0,0,0,0,0,0,0],"split_type":[0,0,0,0,0,0,0,0,0,0,0,0,0,0,0],"sum_hessian":[6.9037375E4,5.236591E4,1.6671463E4,4.0445035E4,1.1920874E4,1.4510706E4,2.1607573E3,3.489798E4,5.5470547E3,1.0719839E4,1.2010349E3,1.3133781E4,1.3769243E3,1.810471E1,2.1426526E3],"tree_param":{"num_deleted":"0","num_feature":"22","num_nodes":"15","size_leaf_vector":"1"}},{"base_weights":[1.8124927E-2,1.0711939E-1,-5.622966E-1,-8.740689E-2,1.10433E0,6.7455664E-2,-5.923739E-1,4.894985E-3,-1.832053E-2,5.485813E-2,5.8293413E-2,-2.6206648E-2,-5.2741665E-2],"categories":[],"categories_nodes":[],"categories_segments":[],"categories_sizes":[],"default_left":[0,0,0,0,0,0,0,0,0,0,0,0,0],"id":68,"left_children":[1,3,5,7,9,-1,11,-1,-1,-1,-1,-1,-1],"loss_changes":[3.5409294E3,1.1529904E4,5.247263E2,2.5714521E3,3E0,0E0,2.8261865E2,0E0,0E0,0E0,0E0,0E0,0E0],"parents":[2147483647,0,0,1,1,2,2,3,3,4,4,6,6],"right_children":[2,4,6,8,10,-1,12,-1,-1,-1,-1,-1,-1],"split_conditions":[1E0,1.5032229E-2,0E0,1E0,1E0,6.7455664E-2,1E0,4.894985E-3,-1.832053E-2,5.485813E-2,5.8293413E-2,-2.6206648E-2,-5.2741665E-2],"split_indices":[8,8,0,0,21,0,16,0,0,0,0,0,0],"split_type":[0,0,0,0,0,0,0,0,0,0,0,0,0],"sum_hessian":[6.854836E4,5.943601E4,9.112348E3,4.9735082E4,9.700932E3,1.4048816E2,8.971859E3,2.9886162E4,1.9848918E4,8.705804E3,9.95128E2,7.8200576E3,1.1518019E3],"tree_param":{"num_deleted":"0","num_feature":"22","num_nodes":"13","size_leaf_vector":"1"}},{"base_weights":[1.751567E-2,1.03521936E-1,-5.744526E-1,-7.818364E-2,1.1024846E0,1.3462228E0,-6.028738E-1,1.3311667E-3,-2.9132588E-2,5.459038E-2,5.7842452E-2,7.167151E-2,5.9174646E-2,-2.6741473E-2,-5.1533487E-2],"categories":[],"categories_nodes":[],"categories_segments":[],"categories_sizes":[],"default_left":[0,0,0,0,0,0,0,0,0,0,0,0,0,0,0],"id":69,"left_children":[1,3,5,7,9,11,13,-1,-1,-1,-1,-1,-1,-1,-1],"loss_changes":[3.470283E3,1.0802922E4,4.7282056E2,2.662417E3,4.053711E0,9.724426E-2,2.4749829E2,0E0,0E0,0E0,0E0,0E0,0E0,0E0,0E0],"parents":[2147483647,0,0,1,1,2,2,3,3,4,4,5,5,6,6],"right_children":[2,4,6,8,10,12,14,-1,-1,-1,-1,-1,-1,-1,-1],"split_conditions":[1E0,7.108901E-3,0E0,1E0,1E0,0E0,1E0,1.3311667E-3,-2.9132588E-2,5.459038E-2,5.7842452E-2,7.167151E-2,5.9174646E-2,-2.6741473E-2,-5.1533487E-2],"split_indices":[11,11,0,19,6,4,17,0,0,0,0,0,0,0,0],"split_type":[0,0,0,0,0,0,0,0,0,0,0,0,0,0,0],"sum_hessian":[6.815891E4,5.9513145E4,8.645759E3,5.0354816E4,9.15833E3,1.2539422E2,8.520365E3,4.169361E4,8.661208E3,7.67255E3,1.4857802E3,7.655799E1,4.8836227E1,7.3530522E3,1.1673124E3],"tree_param":{"num_deleted":"0","num_feature":"22","num_nodes":"15","size_leaf_vector":"1"}},{"base_weights":[1.691488E-2,9.486976E-2,-6.244871E-1,-5.664087E-2,1.1014206E0,6.461486E-2,-6.467513E-1,1.6881289E-3,-3.155922E-2,5.4713782E-2,5.8166128E-2,-3.7756328E-2,-1.8972114E-2],"categories":[],"categories_nodes":[],"categories_segments":[],"categories_sizes":[],"default_left":[0,0,0,0,0,0,0,0,0,0,0,0,0],"id":70,"left_children":[1,3,5,7,9,-1,11,-1,-1,-1,-1,-1,-1],"loss_changes":[3.3894282E3,9.217629E3,3.1433228E2,2.7287307E3,2.2246094E0,0E0,2.1010083E2,0E0,0E0,0E0,0E0,0E0,0E0],"parents":[2147483647,0,0,1,1,2,2,3,3,4,4,6,6],"right_children":[2,4,6,8,10,-1,12,-1,-1,-1,-1,-1,-1],"split_conditions":[1E0,1.1063321E-2,0E0,1E0,1E0,6.461486E-2,1.6680568E-2,1.6881289E-3,-3.155922E-2,5.4713782E-2,5.8166128E-2,-3.7756328E-2,-1.8972114E-2],"split_indices":[13,13,12,17,18,0,18,0,0,0,0,0,0],"split_type":[0,0,0,0,0,0,0,0,0,0,0,0,0],"sum_hessian":[6.778581E4,6.0440797E4,7.3450176E3,5.2534074E4,7.9067246E3,8.368074E1,7.261337E3,4.539257E4,7.141503E3,7.10527E3,8.014544E2,5.1653296E3,2.0960076E3],"tree_param":{"num_deleted":"0","num_feature":"22","num_nodes":"13","size_leaf_vector":"1"}},{"base_weights":[1.6308438E-2,1.1793335E-1,-4.7204602E-1,-1.03490755E-1,1.0883524E0,-3.5555667E-1,-7.6922333E-1,1.2071311E-3,-2.3521064E-2,5.400417E-2,5.664518E-2,-2.8773844E-2,5.5652898E-2,-3.5422068E-2,-5.669873E-2],"categories":[],"categories_nodes":[],"categories_segments":[],"categories_sizes":[],"default_left":[0,0,0,0,0,0,0,0,0,0,0,0,0,0,0],"id":71,"left_children":[1,3,5,7,9,11,13,-1,-1,-1,-1,-1,-1,-1,-1],"loss_changes":[3.3476567E3,1.1997514E4,4.0195337E2,2.1291304E3,2.5986328E0,2.6971633E3,7.1717285E1,0E0,0E0,0E0,0E0,0E0,0E0,0E0,0E0],"parents":[2147483647,0,0,1,1,2,2,3,3,4,4,5,5,6,6],"right_children":[2,4,6,8,10,12,14,-1,-1,-1,-1,-1,-1,-1,-1],"split_conditions":[1E0,1.6680568E-2,1E0,1E0,9.8932266E-1,7.966634E-3,1E0,1.2071311E-3,-2.3521064E-2,5.400417E-2,5.664518E-2,-2.8773844E-2,5.5652898E-2,-3.5422068E-2,-5.669873E-2],"split_indices":[18,18,4,6,6,4,16,0,0,0,0,0,0,0,0],"split_type":[0,0,0,0,0,0,0,0,0,0,0,0,0,0,0],"sum_hessian":[6.745155E4,5.5833535E4,1.1618011E4,4.5461348E4,1.0372189E4,8.347934E3,3.2700771E3,3.3729715E4,1.1731634E4,8.769695E3,1.6024938E3,7.261201E3,1.0867329E3,2.80551E3,4.6456705E2],"tree_param":{"num_deleted":"0","num_feature":"22","num_nodes":"15","size_leaf_vector":"1"}},{"base_weights":[1.5824104E-2,9.262282E-2,-6.1316234E-1,-6.558421E-2,1.1078397E0,7.277214E-2,-6.350483E-1,1.1420287E-3,-3.170031E-2,5.499635E-2,5.885874E-2,-3.0555433E-2,-8.6558335E-2],"categories":[],"categories_nodes":[],"categories_segments":[],"categories_sizes":[],"default_left":[0,0,0,0,0,0,0,0,0,0,0,0,0],"id":72,"left_children":[1,3,5,7,9,-1,11,-1,-1,-1,-1,-1,-1],"loss_changes":[3.2363606E3,9.589964E3,3.3097803E2,2.5964993E3,3.1210938E0,0E0,1.8825854E2,0E0,0E0,0E0,0E0,0E0,0E0],"parents":[2147483647,0,0,1,1,2,2,3,3,4,4,6,6],"right_children":[2,4,6,8,10,-1,12,-1,-1,-1,-1,-1,-1],"split_conditions":[1E0,2.518431E-2,0E0,1E0,1E0,7.277214E-2,1.7329289E0,1.1420287E-3,-3.170031E-2,5.499635E-2,5.885874E-2,-3.0555433E-2,-8.6558335E-2],"split_indices":[12,12,13,14,20,0,0,0,0,0,0,0,0],"split_type":[0,0,0,0,0,0,0,0,0,0,0,0,0],"sum_hessian":[6.69958E4,5.970653E4,7.289264E3,5.1657402E4,8.049132E3,7.562744E1,7.2136367E3,4.4704105E4,6.9532954E3,7.239771E3,8.0936096E2,7.06098E3,1.5265646E2],"tree_param":{"num_deleted":"0","num_feature":"22","num_nodes":"13","size_leaf_vector":"1"}},{"base_weights":[1.5269225E-2,1.1454739E-1,-4.655183E-1,-9.515411E-2,1.0850816E0,1.4060985E0,-4.833586E-1,-3.5413695E-4,-3.128218E-2,5.391087E-2,5.6066275E-2,7.4904054E-2,6.092297E-2,-2.0642942E-2,-4.6946738E-2],"categories":[],"categories_nodes":[],"categories_segments":[],"categories_sizes":[],"default_left":[0,0,0,0,0,0,0,0,0,0,0,0,0,0,0],"id":73,"left_children":[1,3,5,7,9,11,13,-1,-1,-1,-1,-1,-1,-1,-1],"loss_changes":[3.181934E3,1.1245418E4,3.8164038E2,2.1228572E3,1.2333984E0,3.8406372E-2,3.6262183E2,0E0,0E0,0E0,0E0,0E0,0E0,0E0,0E0],"parents":[2147483647,0,0,1,1,2,2,3,3,4,4,5,5,6,6],"right_children":[2,4,6,8,10,12,14,-1,-1,-1,-1,-1,-1,-1,-1],"split_conditions":[1E0,3.0408811E-3,1.8E1,1E0,1E0,0E0,1E0,-3.5413695E-4,-3.128218E-2,5.391087E-2,5.6066275E-2,7.4904054E-2,6.092297E-2,-2.0642942E-2,-4.6946738E-2],"split_indices":[20,20,1,9,5,4,15,0,0,0,0,0,0,0,0],"split_type":[0,0,0,0,0,0,0,0,0,0,0,0,0,0,0],"sum_hessian":[6.666079E4,5.5252434E4,1.1408354E4,4.5436055E4,9.816381E3,1.0698323E2,1.130137E4,3.8967688E4,6.4683657E3,8.27917E3,1.5372107E3,6.710421E1,3.9879017E1,9.788518E3,1.512853E3],"tree_param":{"num_deleted":"0","num_feature":"22","num_nodes":"15","size_leaf_vector":"1"}},{"base_weights":[1.4787634E-2,9.917174E-2,-5.456594E-1,-6.9956735E-2,1.0844924E0,6.75107E-2,-5.657368E-1,1.5318457E-3,-2.7272223E-2,5.4805696E-2,-2.5560303E-2,-2.4922712E-2,-4.9830582E-2],"categories":[],"categories_nodes":[],"categories_segments":[],"categories_sizes":[],"default_left":[0,0,0,0,0,0,0,0,0,0,0,0,0],"id":74,"left_children":[1,3,5,7,9,-1,11,-1,-1,-1,-1,-1,-1],"loss_changes":[3.1346018E3,9.600023E3,3.3091895E2,2.3517903E3,1.5706836E2,0E0,2.4834082E2,0E0,0E0,0E0,0E0,0E0,0E0],"parents":[2147483647,0,0,1,1,2,2,3,3,4,4,6,6],"right_children":[2,4,6,8,10,-1,12,-1,-1,-1,-1,-1,-1],"split_conditions":[1E0,1.7833585E-2,0E0,1E0,2.241976E0,6.75107E-2,1E0,1.5318457E-3,-2.7272223E-2,5.4805696E-2,-2.5560303E-2,-2.4922712E-2,-4.9830582E-2],"split_indices":[10,10,12,7,12,0,16,0,0,0,0,0,0],"split_type":[0,0,0,0,0,0,0,0,0,0,0,0,0],"sum_hessian":[6.6278555E4,5.7605906E4,8.672651E3,4.916735E4,8.438556E3,9.018699E1,8.582464E3,4.0582664E4,8.5846875E3,8.377853E3,6.0702805E1,7.425157E3,1.157307E3],"tree_param":{"num_deleted":"0","num_feature":"22","num_nodes":"13","size_leaf_vector":"1"}},{"base_weights":[1.4291949E-2,1.3776657E-1,-3.6241028E-1,-1.3494593E-1,1.0581456E0,-2.8980893E-1,-8.650764E-1,-2.4851153E-3,-3.131483E-2,5.3786147E-2,-2.9457042E-2,-2.1997184E-2,5.8158558E-2,-3.9705846E-2,-5.5733234E-2],"categories":[],"categories_nodes":[],"categories_segments":[],"categories_sizes":[],"default_left":[0,0,0,0,0,0,0,0,0,0,0,0,0,0,0],"id":75,"left_children":[1,3,5,7,9,11,13,-1,-1,-1,-1,-1,-1,-1,-1],"loss_changes":[3.0663499E3,1.2462249E4,5.9366455E2,1.6042343E3,3.2924023E2,3.1029053E3,3.5481445E1,0E0,0E0,0E0,0E0,0E0,0E0,0E0,0E0],"parents":[2147483647,0,0,1,1,2,2,3,3,4,4,5,5,6,6],"right_children":[2,4,6,8,10,12,14,-1,-1,-1,-1,-1,-1,-1,-1],"split_conditions":[1E0,7.966634E-3,1E0,1E0,2.241976E0,2.8580613E-2,9.8902935E-1,-2.4851153E-3,-3.131483E-2,5.3786147E-2,-2.9457042E-2,-2.1997184E-2,5.8158558E-2,-3.9705846E-2,-5.5733234E-2],"split_indices":[4,4,17,9,12,17,21,0,0,0,0,0,0,0,0],"split_type":[0,0,0,0,0,0,0,0,0,0,0,0,0,0,0],"sum_hessian":[6.592227E4,4.964905E4,1.6273222E4,3.830111E4,1.134794E4,1.4220845E4,2.0523767E3,3.263962E4,5.6614927E3,1.1228475E4,1.1946602E2,1.2889667E4,1.3311772E3,1.6012993E3,4.510775E2],"tree_param":{"num_deleted":"0","num_feature":"22","num_nodes":"15","size_leaf_vector":"1"}},{"base_weights":[1.3924312E-2,9.863251E-2,-5.163477E-1,-7.9052106E-2,1.0971099E0,6.637388E-2,-5.438884E-1,9.564653E-4,-2.6582915E-2,5.4530937E-2,5.7932276E-2,-2.3815442E-2,-4.842815E-2],"categories":[],"categories_nodes":[],"categories_segments":[],"categories_sizes":[],"default_left":[0,0,0,0,0,0,0,0,0,0,0,0,0],"id":76,"left_children":[1,3,5,7,9,-1,11,-1,-1,-1,-1,-1,-1],"loss_changes":[2.9398494E3,1.0012193E4,4.5850537E2,2.1289666E3,2.1435547E0,0E0,2.5447607E2,0E0,0E0,0E0,0E0,0E0,0E0],"parents":[2147483647,0,0,1,1,2,2,3,3,4,4,6,6],"right_children":[2,4,6,8,10,-1,12,-1,-1,-1,-1,-1,-1],"split_conditions":[1E0,1.5032229E-2,0E0,1E0,1E0,6.637388E-2,1E0,9.564653E-4,-2.6582915E-2,5.4530937E-2,5.7932276E-2,-2.3815442E-2,-4.842815E-2],"split_indices":[8,8,0,11,19,0,15,0,0,0,0,0,0],"split_type":[0,0,0,0,0,0,0,0,0,0,0,0,0],"sum_hessian":[6.544655E4,5.643256E4,9.013993E3,4.790799E4,8.524572E3,1.319634E2,8.88203E3,3.9368867E4,8.539118E3,7.7280747E3,7.96497E2,7.6644824E3,1.2175479E3],"tree_param":{"num_deleted":"0","num_feature":"22","num_nodes":"13","size_leaf_vector":"1"}},{"base_weights":[1.3474637E-2,1.11235015E-1,-4.3631563E-1,-1.225703E-1,1.0911641E0,6.798534E-2,-4.530251E-1,-1.4327068E-4,-2.2986075E-2,5.4168303E-2,5.6604553E-2,-1.924424E-2,-4.54836E-2],"categories":[],"categories_nodes":[],"categories_segments":[],"categories_sizes":[],"default_left":[0,0,0,0,0,0,0,0,0,0,0,0,0],"id":77,"left_children":[1,3,5,7,9,-1,11,-1,-1,-1,-1,-1,-1],"loss_changes":[2.8624932E3,1.2252089E4,3.4942285E2,1.7424998E3,2.0605469E0,0E0,3.5799487E2,0E0,0E0,0E0,0E0,0E0,0E0],"parents":[2147483647,0,0,1,1,2,2,3,3,4,4,6,6],"right_children":[2,4,6,8,10,-1,12,-1,-1,-1,-1,-1,-1],"split_conditions":[1E0,1.1974498E-2,1.8E1,1E0,1E0,6.798534E-2,1E0,-1.4327068E-4,-2.2986075E-2,5.4168303E-2,5.6604553E-2,-1.924424E-2,-4.54836E-2],"split_indices":[21,21,1,5,6,0,14,0,0,0,0,0,0],"split_type":[0,0,0,0,0,0,0,0,0,0,0,0,0],"sum_hessian":[6.509648E4,5.347469E4,1.1621789E4,4.3174406E4,1.0300284E4,1.0638697E2,1.1515402E4,3.1862645E4,1.1311762E4,8.674884E3,1.6254011E3,1.0021804E4,1.4935983E3],"tree_param":{"num_deleted":"0","num_feature":"22","num_nodes":"13","size_leaf_vector":"1"}},{"base_weights":[1.30894715E-2,8.542213E-2,-5.882764E-1,-6.07035E-2,1.0952272E0,6.603828E-2,-6.1459833E-1,1.2545858E-3,-2.9450929E-2,5.5535566E-2,-2.6967654E-2,-2.5887985E-2,-4.2415265E-2],"categories":[],"categories_nodes":[],"categories_segments":[],"categories_sizes":[],"default_left":[0,0,0,0,0,0,0,0,0,0,0,0,0],"id":78,"left_children":[1,3,5,7,9,-1,11,-1,-1,-1,-1,-1,-1],"loss_changes":[2.8142021E3,8.521605E3,3.4985986E2,2.2867932E3,1.85375E2,0E0,1.5464502E2,0E0,0E0,0E0,0E0,0E0,0E0],"parents":[2147483647,0,0,1,1,2,2,3,3,4,4,6,6],"right_children":[2,4,6,8,10,-1,12,-1,-1,-1,-1,-1,-1],"split_conditions":[1E0,1.3462736E-3,0E0,1E0,1E0,6.603828E-2,1E0,1.2545858E-3,-2.9450929E-2,5.5535566E-2,-2.6967654E-2,-2.5887985E-2,-4.2415265E-2],"split_indices":[16,16,12,15,13,0,6,0,0,0,0,0,0],"split_type":[0,0,0,0,0,0,0,0,0,0,0,0,0],"sum_hessian":[6.4694543E4,5.774928E4,6.945261E3,5.0449797E4,7.299487E3,9.37904E1,6.8514707E3,4.340245E4,7.047346E3,7.231306E3,6.818067E1,4.846495E3,2.0049757E3],"tree_param":{"num_deleted":"0","num_feature":"22","num_nodes":"13","size_leaf_vector":"1"}},{"base_weights":[1.2642974E-2,8.6139135E-2,-5.677591E-1,-5.2125398E-2,1.0958849E0,6.8093374E-2,-5.880636E-1,1.5523931E-3,-2.8906783E-2,5.4419845E-2,5.7845127E-2,-3.3663355E-2,-1.4526389E-2],"categories":[],"categories_nodes":[],"categories_segments":[],"categories_sizes":[],"default_left":[0,0,0,0,0,0,0,0,0,0,0,0,0],"id":79,"left_children":[1,3,5,7,9,-1,11,-1,-1,-1,-1,-1,-1],"loss_changes":[2.7465396E3,7.9787676E3,2.843396E2,2.1992053E3,1.8857422E0,0E0,1.8137256E2,0E0,0E0,0E0,0E0,0E0,0E0],"parents":[2147483647,0,0,1,1,2,2,3,3,4,4,6,6],"right_children":[2,4,6,8,10,-1,12,-1,-1,-1,-1,-1,-1],"split_conditions":[1E0,1.1063321E-2,0E0,1E0,1E0,6.8093374E-2,1.4067286E-2,1.5523931E-3,-2.8906783E-2,5.4419845E-2,5.7845127E-2,-3.3663355E-2,-1.4526389E-2],"split_indices":[13,13,0,14,18,0,7,0,0,0,0,0,0],"split_type":[0,0,0,0,0,0,0,0,0,0,0,0,0],"sum_hessian":[6.4383965E4,5.714816E4,7.2358047E3,5.026616E4,6.8819995E3,7.465798E1,7.161147E3,4.3404016E4,6.862145E3,6.1465366E3,7.3546265E2,5.565988E3,1.5951592E3],"tree_param":{"num_deleted":"0","num_feature":"22","num_nodes":"13","size_leaf_vector":"1"}},{"base_weights":[1.2210626E-2,1.3052012E-1,-3.4218204E-1,-1.2278157E-1,1.0524297E0,-2.6181805E-1,-7.645756E-1,-2.49283E-3,-3.288048E-2,5.3575564E-2,-2.733369E-2,-2.0775666E-2,5.6834172E-2,-4.369676E-2,-2.5346188E-2],"categories":[],"categories_nodes":[],"categories_segments":[],"categories_sizes":[],"default_left":[0,0,0,0,0,0,0,0,0,0,0,0,0,0,0],"id":80,"left_children":[1,3,5,7,9,11,13,-1,-1,-1,-1,-1,-1,-1,-1],"loss_changes":[2.6864475E3,1.121765E4,5.4415857E2,1.4697178E3,3.1651367E2,2.8967322E3,7.176929E1,0E0,0E0,0E0,0E0,0E0,0E0,0E0,0E0],"parents":[2147483647,0,0,1,1,2,2,3,3,4,4,5,5,6,6],"right_children":[2,4,6,8,10,12,14,-1,-1,-1,-1,-1,-1,-1,-1],"split_conditions":[1E0,7.966634E-3,1E0,1E0,1.9943924E0,4.7831093E-3,1.1974498E-2,-2.49283E-3,-3.288048E-2,5.3575564E-2,-2.733369E-2,-2.0775666E-2,5.6834172E-2,-4.369676E-2,-2.5346188E-2],"split_indices":[4,4,9,12,13,9,21,0,0,0,0,0,0,0,0],"split_type":[0,0,0,0,0,0,0,0,0,0,0,0,0,0,0],"sum_hessian":[6.407078E4,4.8035402E4,1.6035379E4,3.7682668E4,1.0352733E4,1.3473542E4,2.5618364E3,3.3162047E4,4.5206235E3,1.023098E4,1.21752785E2,1.2140054E4,1.3334888E3,1.7967986E3,7.6503784E2],"tree_param":{"num_deleted":"0","num_feature":"22","num_nodes":"15","size_leaf_vector":"1"}},{"base_weights":[1.1915338E-2,9.139001E-2,-4.9919277E-1,-6.451874E-2,1.0789833E0,6.712231E-2,-5.1718456E-1,1.5304646E-3,-2.5164722E-2,5.4575693E-2,-2.225021E-2,-2.2844492E-2,-4.506624E-2],"categories":[],"categories_nodes":[],"categories_segments":[],"categories_sizes":[],"default_left":[0,0,0,0,0,0,0,0,0,0,0,0,0],"id":81,"left_children":[1,3,5,7,9,-1,11,-1,-1,-1,-1,-1,-1],"loss_changes":[2.583996E3,8.476832E3,2.8434082E2,1.9846577E3,1.4382617E2,0E0,1.9596143E2,0E0,0E0,0E0,0E0,0E0,0E0],"parents":[2147483647,0,0,1,1,2,2,3,3,4,4,6,6],"right_children":[2,4,6,8,10,-1,12,-1,-1,-1,-1,-1,-1],"split_conditions":[1E0,1.7833585E-2,0E0,1E0,1.9943924E0,6.712231E-2,1E0,1.5304646E-3,-2.5164722E-2,5.4575693E-2,-2.225021E-2,-2.2844492E-2,-4.506624E-2],"split_indices":[10,10,13,7,13,0,16,0,0,0,0,0,0],"split_type":[0,0,0,0,0,0,0,0,0,0,0,0,0],"sum_hessian":[6.361153E4,5.5052043E4,8.559488E3,4.754688E4,7.5051655E3,8.210023E1,8.477388E3,3.9076E4,8.470877E3,7.444241E3,6.092444E1,7.3291865E3,1.1482013E3],"tree_param":{"num_deleted":"0","num_feature":"22","num_nodes":"13","size_leaf_vector":"1"}},{"base_weights":[1.1530951E-2,8.245883E-2,-5.547336E-1,-6.9943294E-2,1.1079862E0,6.7689404E-2,-5.9852135E-1,5.0917134E-4,-2.8022198E-2,5.4928597E-2,5.9613634E-2,-2.6471345E-2,-4.6241574E-2],"categories":[],"categories_nodes":[],"categories_segments":[],"categories_sizes":[],"default_left":[0,0,0,0,0,0,0,0,0,0,0,0,0],"id":82,"left_children":[1,3,5,7,9,-1,11,-1,-1,-1,-1,-1,-1],"loss_changes":[2.5416357E3,8.789552E3,5.894822E2,1.9243282E3,4.463867E0,0E0,1.54781E2,0E0,0E0,0E0,0E0,0E0,0E0],"parents":[2147483647,0,0,1,1,2,2,3,3,4,4,6,6],"right_children":[2,4,6,8,10,-1,12,-1,-1,-1,-1,-1,-1],"split_conditions":[1E0,2.8580613E-2,1.4101293E0,1E0,1E0,6.7689404E-2,1E0,5.0917134E-4,-2.8022198E-2,5.4928597E-2,5.9613634E-2,-2.6471345E-2,-4.6241574E-2],"split_indices":[17,17,1,16,20,0,9,0,0,0,0,0,0],"split_type":[0,0,0,0,0,0,0,0,0,0,0,0,0],"sum_hessian":[6.3279387E4,5.623632E4,7.0430674E3,4.89612E4,7.2751206E3,1.572958E2,6.8857715E3,4.2086977E4,6.8742236E3,6.5568E3,7.183207E2,5.684691E3,1.2010806E3],"tree_param":{"num_deleted":"0","num_feature":"22","num_nodes":"13","size_leaf_vector":"1"}},{"base_weights":[1.1160942E-2,8.152451E-2,-5.4607767E-1,-7.0656605E-2,1.1055987E0,6.373869E-2,-5.657295E-1,5.101762E-4,-2.6895612E-2,5.4730088E-2,5.9934944E-2,-3.255532E-2,-1.437341E-2],"categories":[],"categories_nodes":[],"categories_segments":[],"categories_sizes":[],"default_left":[0,0,0,0,0,0,0,0,0,0,0,0,0],"id":83,"left_children":[1,3,5,7,9,-1,11,-1,-1,-1,-1,-1,-1],"loss_changes":[2.4688828E3,8.712909E3,2.5333228E2,1.8390585E3,6.09375E0,0E0,1.657522E2,0E0,0E0,0E0,0E0,0E0,0E0],"parents":[2147483647,0,0,1,1,2,2,3,3,4,4,6,6],"right_children":[2,4,6,8,10,-1,12,-1,-1,-1,-1,-1,-1],"split_conditions":[1E0,1.632005E-2,1.8E1,1E0,1E0,6.373869E-2,1.4067286E-2,5.101762E-4,-2.6895612E-2,5.4730088E-2,5.9934944E-2,-3.255532E-2,-1.437341E-2],"split_indices":[15,15,1,12,20,0,7,0,0,0,0,0,0],"split_type":[0,0,0,0,0,0,0,0,0,0,0,0,0],"sum_hessian":[6.2964633E4,5.5906113E4,7.0585176E3,4.8673926E4,7.23219E3,7.4684875E1,6.9838325E3,4.1494195E4,7.179729E3,6.4795835E3,7.526064E2,5.3431064E3,1.6407258E3],"tree_param":{"num_deleted":"0","num_feature":"22","num_nodes":"13","size_leaf_vector":"1"}},{"base_weights":[1.08063845E-2,1.0266411E-1,-4.0966842E-1,-9.433305E-2,1.08119E0,-3.4667507E-1,-8.203023E-1,-1.1172261E-3,-3.1030817E-2,5.3635236E-2,5.6215066E-2,-2.2878876E-2,5.753112E-2,9.045706E-3,-4.1930806E-2],"categories":[],"categories_nodes":[],"categories_segments":[],"categories_sizes":[],"default_left":[0,0,0,0,0,0,0,0,0,0,0,0,0,0,0],"id":84,"left_children":[1,3,5,7,9,11,13,-1,-1,-1,-1,-1,-1,-1,-1],"loss_changes":[2.4202947E3,9.91372E3,2.9033618E2,1.6219204E3,1.9462891E0,1.6183126E3,2.753772E1,0E0,0E0,0E0,0E0,0E0,0E0,0E0,0E0],"parents":[2147483647,0,0,1,1,2,2,3,3,4,4,5,5,6,6],"right_children":[2,4,6,8,10,12,14,-1,-1,-1,-1,-1,-1,-1,-1],"split_conditions":[1E0,1.6680568E-2,1E0,1E0,9.8932266E-1,1.632005E-2,1.11095E3,-1.1172261E-3,-3.1030817E-2,5.3635236E-2,5.6215066E-2,-2.2878876E-2,5.753112E-2,9.045706E-3,-4.1930806E-2],"split_indices":[18,18,15,13,6,15,2,0,0,0,0,0,0,0,0],"split_type":[0,0,0,0,0,0,0,0,0,0,0,0,0,0,0],"sum_hessian":[6.2661113E4,5.1427023E4,1.123409E4,4.2809504E4,8.61752E3,9.741532E3,1.492557E3,3.765926E4,5.150242E3,7.2219487E3,1.3955713E3,